svm_type c_svc
kernel_type linear
nr_class 12
total_sv 144
rho -1.2767831410010413 0.13449991524826091 -1.3443897655603534 3.3278984829388132 -1.3039352430751703 7.7927794494027962 1.450172361029944 -27.900237645163752 0.012405371123268828 -25.410413447990283 0.56514830095377333 63.999806277584334 -0.027988474988189127 -1.6139972174773543 -1.3895261934195111 -2.3657494537709765 -34.815673873841128 -2.2814768080218544 1.9660036578426241 -1.3265787153435202 9.588932319194253 -0.28056770591905722 -1.4455212696829822 -2.0581552936763443 -1.8100277561086056 -2.1107209275426602 -1.7371430048972956 -15.762189916124353 -1.8435552928220715 -1.5164937563062761 -0.018547256640644105 -0.062080973283594042 -0.1864751708968844 0.22384401738947746 -0.24157139124529026 0.27520662563348391 -0.11278013775602197 0.16646991229976491 -1.767813669478306 -30.746845351960623 3.2440004147605195 -60.233579757942913 0.25390173397095905 2.2711105899403026 0.49710498951142029 2.7665811504967972 4.3516992522215814 -5.147421403919461 5.2586496543537464 7.15052773020202 2.3861626710412454 6.4312373492693569 14.146535042756597 0.89688574122012421 -1.2133447434216007 1.4989380949071749 -4.5184652561944603 -0.86228753547557169 -5.2821511617140953 0.65335848828214438 0.339976831155616 13.975909055174135 0.91258225285501726 0.40256000820111448 8.1214679924449342 1.0188166466902233
label 4 10 5 2 11 12 13 16 17 18 19 20
nr_sv 22 20 16 1 9 8 12 12 18 8 12 6
SV
8.954034558262113e-06 3.1681727284750836e-06 3.9559896879414664e-06 0 0 0 1.8658380643185059e-05 0 8.5467906264509491e-07 0 2.6971818153163189e-06 0:0.604732 1:3 2:9.35533 3:10.5555 4:74.563 5:3 6:3.33333 7:-218.219 8:-66.2268 9:-14.8439 10:-243.91 11:386.514 12:933.773 13:4 
0 0 0 0 0 0 0 0.0022528191225858222 0 0 0 0:1.46585 1:3 2:2.70199 3:11.5396 4:129.314 5:1.85 6:-1 7:-47.2879 8:-613.004 9:-1000 10:-199.93 11:952.712 12:69.1933 13:4 
1.0226663313276216e-07 0 0 0 0 0 0 0 0 0 0 0:1.50308 1:3 2:2.36837 3:10.0217 4:133.738 5:2.66667 6:-0.6 7:-3.15159 8:-581.469 9:-1000 10:-139.931 11:996.848 12:83.8323 13:1 
0 0 0 0 0 0 0 0 0 0.00028783245222696358 0 0:0.976385 1:3 2:3.38289 3:12.247 4:122.892 5:1.03333 6:0.08 7:-28.7617 8:-765.365 9:-976.385 10:-382.077 11:947.623 12:234.635 13:5 
0 0 0 0 0 0.0014602359165984051 0 0 0 0.00091207877739953242 0 0:1.74109 1:3 2:2.86517 3:12.0125 4:110.112 5:-1.5 6:-0.5 7:-148.709 8:-519.59 9:-980.855 10:-134.907 11:851.291 12:54.764 13:2 
0 0 0 0 0 0 0 0.01149569666288631 0 0 0 0:1.46585 1:3 2:2.70199 3:11.5396 4:129.314 5:1.85 6:-1 7:-47.2879 8:-613.004 9:-1000 10:-199.93 11:952.712 12:69.1933 13:4 
0 0 0 0 0 0 0 0.0040216327496192996 0 0 0 0:1.50308 1:3 2:2.36837 3:10.0217 4:133.738 5:2.66667 6:-0.6 7:-3.15159 8:-581.469 9:-1000 10:-139.931 11:996.848 12:83.8323 13:1 
0 0 0 0 0 0.0033721261534075358 0 0.00089138029416354074 0 0.005202688304076785 0 0:1.74109 1:3 2:2.86517 3:12.0125 4:110.112 5:-1.5 6:-0.5 7:-148.709 8:-519.59 9:-980.855 10:-134.907 11:851.291 12:54.764 13:2 
0 0 0 0.00011162608806143158 0 0 0 0.013949700137498031 0 0 0 0:1.85722 1:3 2:2.35962 3:10.9586 4:136.619 5:0.6 6:-0.25 7:-25.8176 8:-381.813 9:-1000 10:-49.0534 11:974.182 12:156.627 13:1 
0 2.4813150450782219e-06 0 7.8398223044908441e-06 0 0 0 0 0 0 0 0:2.13017 1:3 2:2.14719 3:10.3222 4:116.405 5:-1.33333 6:-0.454545 7:-4.78738 8:-331.456 9:-1000 10:-85.3281 11:995.213 12:137.989 13:6 
0 0 1.0330501022066201e-06 0 0 0 0 0 0 0 0 0:0.883537 1:3 2:4.14285 3:13.9795 4:102.613 5:1.4 6:-0.333333 7:-24.4428 8:-567.937 9:-872.753 10:-564.342 11:859.094 12:432.063 13:4 
0 0 0 0 0 0.011723158052457338 0 0 0 0 0 0:1.68498 1:3 2:2.74797 3:11.8582 4:139.523 5:0.333333 6:-0.5 7:-81.1528 8:-566.553 9:-999.242 10:-268.108 11:918.847 12:26.9245 13:6 
0 0 0 0 0 0 1.1990050646254038e-06 0 0 0 0 0:1.88113 1:3 2:2.50701 3:11.9271 4:137.036 5:2 6:-0.24 7:-27.7212 8:-484.305 9:-1000 10:-232.369 11:972.279 12:47.289 13:2 
0 0 0 0 0 0 0 0.044634496522102315 0 0 0 0:1.49754 1:3 2:2.54173 3:10.2964 4:126.271 5:1.23077 6:-0.444444 7:-54.9631 8:-562.483 9:-1000 10:-148.756 11:945.037 12:105.278 13:2 
0 0 0 0 0 0 0 0.0014911465747550559 0 0 0 0:1.46585 1:3 2:2.70199 3:11.5396 4:129.314 5:1.85 6:-1 7:-47.2879 8:-613.004 9:-1000 10:-199.93 11:952.712 12:69.1933 13:4 
0 0 0 0 0 0 0 0.010922245472186161 0 0 0 0:1.50308 1:3 2:2.36837 3:10.0217 4:133.738 5:2.66667 6:-0.6 7:-3.15159 8:-581.469 9:-1000 10:-139.931 11:996.848 12:83.8323 13:1 
0 0 0 0 0 0 0 0 0 1.6143849050421974e-06 0 0:0.976385 1:3 2:3.38289 3:12.247 4:122.892 5:1.03333 6:0.08 7:-28.7617 8:-765.365 9:-976.385 10:-382.077 11:947.623 12:234.635 13:5 
0 0 0 0 0 0 0 0.0074017279888968154 3.277496919158783e-06 0 2.0987876644286236e-07 0:1.46585 1:3 2:2.70199 3:11.5396 4:129.314 5:1.85 6:-1 7:-47.2879 8:-613.004 9:-1000 10:-199.93 11:952.712 12:69.1933 13:4 
1.5145746551993666e-05 1.8644344800601436e-06 0 0 1.5622509086143159e-05 0 2.0303260898645046e-05 0.051432281788713841 0 0 0 0:1.50308 1:3 2:2.36837 3:10.0217 4:133.738 5:2.66667 6:-0.6 7:-3.15159 8:-581.469 9:-1000 10:-139.931 11:996.848 12:83.8323 13:1 
0 0 0 0 4.7246695550372462e-06 0 0 0 7.322584640830923e-07 0.0019426907978484546 5.43707132370365e-06 0:0.976385 1:3 2:3.38289 3:12.247 4:122.892 5:1.03333 6:0.08 7:-28.7617 8:-765.365 9:-976.385 10:-382.077 11:947.623 12:234.635 13:5 
0 0 0 9.2150141324793628e-05 0 0.011975742273976891 1.8046192067160709e-05 0 0 0.00033628139379176185 0 0:1.88444 1:3 2:2.33454 3:10.4485 4:111.975 5:0.153846 6:-0.230769 7:-53.9832 8:-479.036 9:-1000 10:-129.193 11:946.017 12:51.6247 13:2 
1.3616506489136878e-06 0 0 0 0 0 0 0 0 0 0 0:2.00048 1:3 2:2.39056 3:11.219 4:121.746 5:1 6:-0.214286 7:-5.31786 8:-380.952 9:-988.397 10:-258.883 11:994.682 12:118.927 13:4 
-0 0.067182222676967857 0 0 0 0 0 0 0 0 0 0:1.56018 1:3 2:6.45141 3:14.1434 4:117.135 5:-1 6:-0.0636943 7:-0.701262 8:-392.707 9:-282.959 10:-21.0379 11:999.299 12:248.247 13:5 
-1.8660471654680066e-07 0 0 0 0 0 0 0 0 0 0 0:1.56198 1:3 2:6.34739 3:15.4931 4:100.166 5:0.565217 6:-1 7:-9.74659 8:-246.449 9:-469.507 10:-59.8719 11:990.253 12:393.762 13:1 
-1.5006466117322144e-07 0 0 0 0 0 4.7439269624534719e-05 0 0 0 0 0:0.949627 1:3 2:7.66221 3:20.0933 4:103.343 5:0.222222 6:0.483871 7:-8.86194 8:-889.925 9:-496.269 10:-594.216 11:940.765 12:110.075 13:4 
-0 0.0047336635581866184 0 0 0 0 0 0 0 0 0 0:1.56018 1:3 2:6.45141 3:14.1434 4:117.135 5:-1 6:-0.0636943 7:-0.701262 8:-392.707 9:-282.959 10:-21.0379 11:999.299 12:248.247 13:5 
-0 0 0 0 0 0 0 0 0 0 2.2944795357274083e-05 0:0.941572 1:3 2:9.02433 3:15.1628 4:108.233 5:-3.33333 6:1 7:-0.876424 8:-743.208 9:-314.636 10:-465.966 11:940.695 12:256.792 13:4 
-5.2170632394226133e-06 0 0 0 1.4105441123681135e-06 5.5197445006591737e-06 0.00056207345976296366 3.551544432321519e-07 0 2.5729881781157579e-06 2.5203484717446684e-05 0:0.949627 1:3 2:7.66221 3:20.0933 4:103.343 5:0.222222 6:0.483871 7:-8.86194 8:-889.925 9:-496.269 10:-594.216 11:940.765 12:110.075 13:4 
-8.4160226528287891e-07 0 1.298953504048083e-06 0 0 0 0 0 0 0 0 0:1.14472 1:3 2:7.58314 3:14.0227 4:94.4463 5:0 6:-0 7:-17.9748 8:-509.287 9:-466.747 10:-401.438 11:982.025 12:364.29 13:6 
-0 0 0 0 0 9.4598302382629743e-06 0.0084151918231121052 0 0 0 0 0:1.74359 1:3 2:6.03912 3:17.921 4:109.297 5:1 6:5 7:-8.33333 8:-550.98 9:-467.647 10:-284.804 11:991.667 12:22.549 13:5 
-0 0 0 0 0 0 0.0021707921954268118 0 3.9932446656771136e-05 0 0 0:1.80025 1:3 2:6.624 3:17.6043 4:101.296 5:-0.285714 6:-3.25 7:-70.2963 8:-356.995 9:-433.839 10:-55.8236 11:929.704 12:198.484 13:4 
-0 0 0 0 0 0 0.0019011210829365187 0 0 0 0 0:1.03591 1:3 2:5.22291 3:11.7782 4:109.637 5:2 6:-1.42857 7:-5.89971 8:-524.336 9:-429.204 10:-36.8732 11:994.1 12:441.003 13:0 
-0 0 0 0 0 0 0.0039813402672968911 0 0 0 0 0:1.52116 1:3 2:6.8016 3:17.8129 4:118.956 5:6 6:-21 7:0 8:-582.689 9:-324.06 10:-197.836 11:1000 12:74.7038 13:3 
-0 0 0 1.0189348230034767e-05 9.9945004879524373e-06 3.6643257636102849e-06 0.0094129615466800824 9.6902732629972779e-06 0 1.1207045378305559e-05 0 0:1.3767 1:3 2:4.94667 3:13.8658 4:97.4616 5:-1.33333 6:1 7:-9.86031 8:-524.24 9:-505.341 10:-116.68 11:990.14 12:202.136 13:1 
-0 0.02731372924268425 0 0 0 0 0 0 0.00022453314617657918 0 0 0:1.56882 1:3 2:6.66439 3:19.9348 4:116.729 5:1.14286 6:-2.16667 7:0 8:-619.001 9:-15.5114 10:-84.3432 11:1000 12:18.4198 13:5 
-0 0.047176527829236384 0 0 0 0 0 0 0 0 0 0:1.64242 1:3 2:6.82603 3:20.0454 4:119.618 5:1 6:-2.625 7:-15.0956 8:-606.843 9:0 10:-95.27 11:984.904 12:2.01275 13:5 
-0 0.016618825039977064 0 0 0 0 0 0 0 0 0 0:1.56018 1:3 2:6.45141 3:14.1434 4:117.135 5:-1 6:-0.0636943 7:-0.701262 8:-392.707 9:-282.959 10:-21.0379 11:999.299 12:248.247 13:5 
-0 0 0 0 3.4928181050232949e-06 0 0 0 0 0 7.6383104033724957e-05 0:1.11033 1:3 2:5.84898 3:14.6828 4:117.693 5:2 6:3.33333 7:0 8:-803.911 9:-149.049 10:-200.317 11:1000 12:96.723 13:6 
-0 0.014593085271535468 0 0 0 0 0 0 0 0 0 0:1.56018 1:3 2:6.45141 3:14.1434 4:117.135 5:-1 6:-0.0636943 7:-0.701262 8:-392.707 9:-282.959 10:-21.0379 11:999.299 12:248.247 13:5 
-0 0 3.1501762818598842e-07 0 0 0 0 0 0 0 0 0:1.55191 1:3 2:8.94701 3:14.4187 4:104.061 5:0.6 6:-1.375 7:-11.5721 8:-204.629 9:-323.172 10:-66.8925 11:988.428 12:439.74 13:3 
-1.9168363509876717e-05 0 0 0 0 0 0 0 0 0 0 0:1.56198 1:3 2:6.34739 3:15.4931 4:100.166 5:0.565217 6:-1 7:-9.74659 8:-246.449 9:-469.507 10:-59.8719 11:990.253 12:393.762 13:1 
-0 0.11725814621946078 0 0 0 0 0 0 0 0 0 0:1.9976 1:3 2:7.47256 3:13.8616 4:108.382 5:0.210526 6:5 7:-22.4269 8:-239.087 9:-302.363 10:-24.8298 11:977.573 12:261.514 13:6 
-0 -0.0041155445746572884 0 0 0 0 0 0 0 0 0 0:1.24838 1:3 2:6.16735 3:10.695 4:136.38 5:-0.714286 6:-2 7:-5.17977 8:-449.116 9:-162.096 10:-1.21877 11:994.82 12:351.92 13:4 
-0 -1.1025795653645766e-07 0 0 0 0 0 0 0 0 0 0:1.71566 1:3 2:10.0503 3:12.6183 4:129.739 5:-10 6:-4 7:-2.10674 8:-313.202 9:-42.1348 10:-46.3483 11:997.893 12:269.663 13:2 
-0 -0.007377883322750225 0 0 0 0 0 0 0 0 0 0:1.24838 1:3 2:6.16735 3:10.695 4:136.38 5:-0.714286 6:-2 7:-5.17977 8:-449.116 9:-162.096 10:-1.21877 11:994.82 12:351.92 13:4 
-0 -0.010753485262480145 6.9739990819659049e-07 0 0 0 0 0 0 0 0 0:1.71566 1:3 2:10.0503 3:12.6183 4:129.739 5:-10 6:-4 7:-2.10674 8:-313.202 9:-42.1348 10:-46.3483 11:997.893 12:269.663 13:2 
-0 -0.026139221140675406 0 1.4111797525174272e-06 0 0 3.0184097893967619e-05 0 0 0 0 0:4.66506 1:3 2:5.42113 3:17.8727 4:129.569 5:1.8 6:0 7:-5.83992 8:-165.579 9:-326.692 10:0 11:994.16 12:48.7805 13:4 
-0 -0.18285584968005694 0 0 0 0 0 0 0 0 0 0:1.87397 1:3 2:6.52612 3:13.3191 4:108.117 5:-2 6:3 7:-6.57895 8:-380.848 9:-247.807 10:-51.1696 11:993.421 12:152.778 13:7 
-0 -0.027984304746414744 5.6473202764046808e-07 0 0 0 0 0 0 0 9.7346631808052649e-06 0:1.18069 1:3 2:7.4768 3:16.0175 4:91.0919 5:0.777778 6:1.83333 7:-65.3041 8:-556.331 9:-110.668 10:-65.8026 11:934.696 12:290.628 13:4 
-7.5139222536134504e-06 -0 0 0 0 0 0 0 0 0 0 0:1.8698 1:3 2:7.91444 3:14.2112 4:113.324 5:-1.16667 6:-1 7:-8.6145 8:-272.075 9:-226.131 10:0 11:991.385 12:262.742 13:5 
-0 -0.012012683150168858 0 0 0 0 0 0 0 0 0 0:1.24838 1:3 2:6.16735 3:10.695 4:136.38 5:-0.714286 6:-2 7:-5.17977 8:-449.116 9:-162.096 10:-1.21877 11:994.82 12:351.92 13:4 
-0 -0 0 0 0 0 0 0 2.1056651154678903e-05 0 1.4600514275324387e-06 0:1.49803 1:3 2:3.69752 3:8.68775 4:113.129 5:0 6:1.25 7:-203.094 8:-618.828 9:0 10:0 11:796.906 12:48.7163 13:6 
-0 -0.023637117702888857 0 0 0 0 0 0 0 0 0 0:1.24838 1:3 2:6.16735 3:10.695 4:136.38 5:-0.714286 6:-2 7:-5.17977 8:-449.116 9:-162.096 10:-1.21877 11:994.82 12:351.92 13:4 
-0 -0 0 4.773897079400463e-06 7.146077744715489e-07 5.205261829330178e-06 5.6090163162458438e-05 5.3159934785427328e-06 0 7.5742981505085077e-06 0 0:1.98341 1:3 2:4.2825 3:10.6235 4:117.812 5:0 6:24 7:-12.0855 8:-456.771 9:-300.899 10:0 11:987.914 12:47.4125 13:5 
-0 -0 0 0 0 0 0 0 0.0031527735154683835 0 0 0:1.66 1:3 2:4.48911 3:11.7205 4:96.5285 5:-0.363636 6:2.57143 7:-14.9868 8:-591.831 9:-4.99559 10:0 11:985.013 12:10.5789 13:4 
-0 -0 0 0 9.3825925022369802e-06 0 0 0 0 0 0 0:1.48274 1:3 2:3.98806 3:9.13342 4:122.396 5:-1.14286 6:2.8 7:-4.94617 8:-581.612 9:-226.36 10:0 11:995.054 12:92.8135 13:5 
-0 -0 0 0 0 0 0 0 0.0057724193881053048 0 0 0:1.76377 1:3 2:4.68997 3:12.7741 4:116.135 5:0 6:1.36364 7:-88.4066 8:-566.967 9:0 10:0 11:911.593 12:0 13:5 
-0 -0 0 0 0 0 0 0 0 0 1.1919722392256872e-05 0:1.34779 1:3 2:4.17617 3:10.0873 4:126.702 5:0.777778 6:1.2 7:-12.5296 8:-647.477 9:-112.089 10:0 11:987.47 12:94.4802 13:5 
-4.9890397901480873e-06 -1.6139711322340714e-06 -1.2621319358370586e-06 7.8574255777519985e-07 7.8330004001164503e-07 9.2163403938127305e-07 1.4446739849807483e-06 8.1527794890887419e-07 9.7816117814930078e-07 8.8380103534619577e-07 1.3457997284738039e-06 0:0.303242 1:3 2:2.41613 3:11.1508 4:102.457 5:1.10526 6:0.428571 7:-10.5011 8:-122.881 9:-102.248 10:-878.408 11:292.741 12:877.119 13:3 
-0 -0 -6.1850768319178913e-06 -7.8574255777519985e-07 0 0 1.8730417584385238e-05 0 2.8172152687434974e-06 0 1.8357050716710923e-06 0:2.28326 1:3 2:3.32572 3:18.0606 4:129.638 5:-1 6:-1 7:-123.434 8:-435.464 9:-848.371 10:0 11:876.566 12:2.50627 13:5 
-2.13561736048305e-05 -0 -0 -0 0 0 0 0 0 0.00027150479591618256 0 0:1.81439 1:3 2:2.60854 3:15.0184 4:130.282 5:-3 6:-0.4 7:-30.6905 8:-526.854 9:-1000 10:-0.639386 11:969.309 12:24.2967 13:3 
-0 -0 -0 -0 0 0.0017948953574539253 0 0 0 0 0 0:2.53869 1:3 2:3.16068 3:22.1468 4:124.413 5:-0.625 6:-0.333333 7:-129.96 8:-384.704 9:-983.899 10:-5.17539 11:870.04 12:9.20069 13:3 
-0 -0 -0 -0 0 0.005252551889545559 0 0 0 0 0 0:1.89559 1:3 2:2.75725 3:15.6653 4:123.744 5:-2.6 6:0 7:-89.7217 8:-509.37 9:-999.432 10:0 11:910.278 12:18.1715 13:2 
-0 -1.0189348230034765e-05 -0 -0 0 0 0 0 0 0.00041954981598010257 1.7725656918255813e-06 0:2.01679 1:3 2:3.12438 3:17.2555 4:125.912 5:0.8 6:-0.142857 7:-68.6785 8:-472.425 9:-882.934 10:-10.4058 11:931.322 12:23.4131 13:3 
-0 -0 -0 -0 0 0.0050083959753359957 0 0 0 0 0 0:1.8676 1:3 2:2.50273 3:14.0671 4:132.368 5:1.5 6:-3.5 7:-38.0597 8:-526.493 9:-1000 10:0 11:961.94 12:8.95522 13:3 
-7.3307327317751768e-05 -0 -0 -0 2.6964650895386785e-05 0.00023530526207022714 0 0.19877352301738899 1.7605043505576442e-06 0.0018744365119309004 0 0:1.6136 1:3 2:2.67163 3:15.004 4:136.053 5:2 6:-0.833333 7:-21.0728 8:-613.985 9:-983.238 10:0 11:978.927 12:5.74713 13:5 
-0 -0 -0 -0 0 0.00074304173313719717 0 0.12583626089641251 0 0 0 0:1.72138 1:3 2:2.62374 3:14.1823 4:141.297 5:0.25 6:-0.52381 7:-70.3576 8:-576.701 9:-1000 10:0 11:929.642 12:4.22914 13:1 
-0.00011695255076813377 -0 -0 -0 0 0.00095165673719293392 0 0 0 0 0 0:3.18686 1:3 2:2.94174 3:26.6397 4:136.398 5:10 6:-4 7:-39.2236 8:-249.09 9:-1000 10:-42.0542 11:960.776 12:64.6987 13:3 
-0 -0 -0 -0 -0 0 0 0 0 0 1.9844973909810233e-06 0:0.641786 1:3 2:2.50696 3:12.594 4:123.866 5:-1.5 6:-5.5 7:-22.6591 8:-985.671 9:-583.472 10:0 11:619.127 12:14.3286 13:4 
-0 -0 -0 -0 -0 2.8135591525842761e-05 0 0.0002348830192775177 0 0 0 0:0.967413 1:3 2:2.47444 3:11.5063 4:113.548 5:-0.25 6:-5 7:-11.2016 8:-954.684 9:-966.904 10:-3.56415 11:956.212 12:45.3157 13:5 
-1.7814829446578305e-05 -0 -0 -0 -1.6995491100970185e-05 5.4832373611919932e-05 0 4.7567785464833244e-05 0 2.162142842957554e-05 0 0:0.957051 1:3 2:2.8566 3:14.0312 4:117.829 5:-2.5 6:1.66667 7:-8.33333 8:-866.667 9:-957.051 10:-3.20513 11:948.718 12:133.333 13:3 
-0 -0 -0 -0 -0 0 0 0 0 1.4451783289285475e-06 0 0:0.868488 1:3 2:2.95048 3:14.1405 4:115.26 5:-0.428571 6:-0.5 7:-82.4482 8:-904.906 9:-855.336 10:-3.0349 11:786.039 12:95.0936 13:6 
-0 -0 -0 -5.9453319355896954e-07 -0 0 0 0 0 0 0 0:0.80852 1:3 2:3.19165 3:14.8583 4:115.066 5:-1.33333 6:-0.8 7:-51.6351 8:-932.444 9:-611.876 10:-2.15146 11:756.885 12:67.5559 13:5 
-0 -1.4897862705343847e-05 -1.0097200276708529e-05 -1.8876684645267554e-07 -0 0 2.7469038792918538e-05 0 1.8095095159692391e-05 5.0888415541814464e-05 0 0:1.20994 1:3 2:3.80506 3:15.2421 4:118.628 5:1 6:2 7:-109.878 8:-812.801 9:-567.518 10:0 11:890.122 12:13.6885 13:3 
-0 -0 -0 -0 -0 0 0 0 7.0064231617878209e-05 0 8.8983683068700708e-06 0:0.980957 1:3 2:3.28245 3:12.5171 4:126.113 5:-0 6:1.83333 7:-127.104 8:-995.571 9:-512.4 10:0 11:853.853 12:4.4287 13:3 
-2.5323491946021043e-06 -0 -0 -0 -9.9691597944165994e-06 9.2701075407265809e-06 0 0 0 0 0 0:1.17922 1:3 2:3.4485 3:17.1616 4:121.183 5:4.5 6:-3.75 7:-0.440529 8:-815.419 9:-748.018 10:0 11:999.559 12:32.5991 13:3 
-0 -0 -0 -0 -0 -0 0 0 0 0.0074527563361169499 0 0:1.46799 1:3 2:3.96654 3:19.0882 4:113.227 5:0.5 6:-2.125 7:-47.3684 8:-681.203 9:-875.94 10:-307.143 11:952.632 12:0 13:5 
-0.00050476076694161496 -0 -0 -1.5281042301553864e-07 -0 -0 0 0 0 0 0 0:1.48479 1:3 2:3.90986 3:20.1889 4:118.388 5:-2.5 6:-1.54545 7:-8.7184 8:-596.338 9:-945.51 10:-487.358 11:991.282 12:77.1578 13:4 
-0.0022186537428057498 -0 -0 -0 -0 -0 0 0 0 0 0 0:1.34796 1:3 2:3.80268 3:17.8383 4:120.463 5:-0.25 6:-1.83333 7:-34.8837 8:-673.643 9:-973.256 10:-487.597 11:965.116 12:68.2171 13:6 
-0 -0 -0 -0 -0 -0 0 0 0 0.030498822493705252 0 0:1.67606 1:3 2:4.20377 3:21.8283 4:109.418 5:0 6:-2.57143 7:-151.755 8:-584.281 9:-987.148 10:-386.555 11:848.245 12:12.3579 13:7 
-0.0046945256870574064 -0 -0 -0 -0.0026676385175699066 -0 0 0.11791774767497422 0 0 0 0:1.50424 1:3 2:3.01808 3:16.4135 4:124.503 5:-1.42857 6:-0.666667 7:-130.54 8:-664.786 9:-1000 10:0 11:869.46 12:0 13:4 
-0 -0 -0 -0 -0 -9.2238072678489265e-05 0 0.010292211929288453 1.8323500230189506e-06 0.26326807409933844 0 0:1.24131 1:3 2:2.85532 3:15.4622 4:112.783 5:2.25 6:0 7:-50.8906 8:-794.911 9:-1000 10:-3.05344 11:949.109 12:10.687 13:4 
-0.0010063888773571273 -0 -1.1949635898481948e-06 -0 -0.011318208437165951 -0 4.1797380872731042e-07 0.033473825203746747 0 0.2185002698753932 0 0:2.17507 1:3 2:2.84864 3:18.9781 4:123.629 5:0.117647 6:1 7:-56.6166 8:-445.771 9:-1000 10:-15.3479 11:943.383 12:13.9836 13:3 
-0 -0 -0 -0 -0 -0 0 0 0 0.93858021530705982 0 0:1.65108 1:3 2:3.05802 3:17.2048 4:104.422 5:0.25 6:0.4 7:-36.4602 8:-585.841 9:-1000 10:-154.69 11:963.54 12:19.823 13:6 
-0 -0 -0 -0 -0 -0 0 0 0 0.091604642801178887 0 0:1.63718 1:3 2:3.35647 3:19.5825 4:111.903 5:-3 6:0.142857 7:-37.4862 8:-607.865 9:-991.547 10:-218.67 11:962.514 12:2.9401 13:3 
-0.0069231537213977424 -0 -0 -0 -0 -0 0 0 0 0 0 0:1.72084 1:3 2:3.07719 3:17.0974 4:122.663 5:-1 6:5.25 7:-25.6324 8:-541.315 9:-1000 10:-225.295 11:974.368 12:39.7976 13:4 
-0 -1.8643900502532436e-05 -4.0102982394819834e-06 -7.6882361636573439e-07 -0 -0 2.1518827134491012e-05 0.00093563697681356048 5.0553575708647503e-06 0 6.3367888503724684e-06 0:1.54342 1:3 2:4.31678 3:16.7587 4:115.534 5:2 6:-6.25 7:-85.6434 8:-637.567 9:-786.512 10:-335.126 11:914.357 12:10.3434 13:3 
-0.013183779600880548 -0 -0 -0 -0 -0 0 0 0 0 0 0:2.05779 1:3 2:3.08756 3:16.9359 4:113.222 5:-2 6:0.5 7:-105.176 8:-438.051 9:-999.449 10:-185.848 11:894.824 12:47.9075 13:1 
-0 -0 -0 -0 -0 -0 -2.1936800943218319e-05 0 0 0 0 0:1.88456 1:3 2:7.29361 3:25.0436 4:107.466 5:6 6:-4.5 7:-116.236 8:-500.369 9:-540.959 10:-236.9 11:883.764 12:30.2583 13:6 
-0 -0 -0 -0 -4.6267459553799096e-06 -0 -0 1.3578651055432875e-05 0 9.8708678513266949e-06 0 0:1.65291 1:3 2:6.25766 3:22.8214 4:103.729 5:-0.4 6:-3.8 7:-91.5214 8:-487.718 9:-580.032 10:-150.158 11:908.479 12:117.274 13:1 
-0 -0.011659681276385689 -0 -0 -0 -1.6260053607429216e-05 -0 0 2.5582795025844115e-05 5.0142594821631807e-06 1.3433742319265632e-05 0:1.30098 1:3 2:5.53315 3:18.4818 4:107.446 5:1.75 6:-7.66667 7:0 8:-679.396 9:-443.162 10:-162.078 11:1000 12:89.254 13:1 
-3.0260017179203374e-05 -0 -0 -0 -1.1084671516921683e-05 -0 -0 2.1248205839682198e-06 0 0 0 0:1.67799 1:3 2:6.78677 3:22.8752 4:104.677 5:-5.66667 6:-3.16667 7:-141.755 8:-443.587 9:-610.415 10:-167.31 11:858.245 12:152.363 13:3 
-2.7946821494412839e-05 -0 -0 -1.4446739849807483e-06 -0 -0 -0 0 0 0 0 0:1.46422 1:3 2:8.82265 3:22.5163 4:116.249 5:3.66667 6:-5 7:-90.3979 8:-304.498 9:-500 10:-131.92 11:909.602 12:378.46 13:3 
-0 -0.002103893316020703 -8.6256060916966914e-05 -0 -0 -0 -0 0 0 0 0 0:2.27945 1:3 2:7.23527 3:28.5702 4:106.493 5:0.5 6:-1.23077 7:-38.1326 8:-365.645 9:-430.862 10:-73.7705 11:961.867 12:73.0577 13:3 
-0 -0.012727345052433538 -0 -0 -0 -0 -0 0 0 0 0 0:1.58025 1:3 2:8.08267 3:25.5807 4:113.905 5:-4 6:1.8 7:-21.7173 8:-434.013 9:-470.431 10:-218.51 11:978.283 12:198.797 13:2 
-0 -0 -0 -0 -0 -0 -0 0 0 0 8.4129035594858431e-06 0:1.28866 1:3 2:6.62887 3:18.8123 4:114.584 5:-2 6:-1.61538 7:-107.826 8:-578.435 9:-492.522 10:-149.217 11:892.174 12:197.565 13:1 
-0 -0 -0 -0 -0 -0 -0 0 0 0 1.9659555194676503e-06 0:1.55252 1:3 2:7.92405 3:23.062 4:112.84 5:1.66667 6:-12.75 7:-141.913 8:-573.631 9:-459.408 10:-205.16 11:858.087 12:70.4846 13:4 
-0 -0 -0 -0 -3.0190001120836426e-06 -2.9121881422822668e-06 -0 0 0 9.3482562019882602e-06 0 0:1.89851 1:3 2:7.14364 3:23.7114 4:117.025 5:1.33333 6:-8 7:-233.261 8:-482.451 9:-528.618 10:-85.5832 11:766.739 12:44.2765 13:5 
-0 -0 -0 -0 -0 -8.2967970432070575e-06 -0 0 0 0 0 0:1.64366 1:3 2:6.91431 3:21.7573 4:124.113 5:-0.291667 6:-6.5 7:-183.105 8:-569.336 9:-440.43 10:-110.352 11:816.895 12:39.0625 13:5 
-0 -0 -1.8200139459141054e-08 -0 -0 -0 -0 0 9.3120163217249232e-06 0 0 0:1.92572 1:3 2:6.13136 3:20.829 4:124.049 5:0.227273 6:-2.5 7:-152.838 8:-508.734 9:-404.294 10:-34.9345 11:847.162 12:10.5531 13:5 
-0 -0 -0 -0 -0 -0 -0.0044777608858179831 -0 0 0 0 0:1.33393 1:3 2:2.88326 3:15.042 4:131.988 5:-1 6:-0 7:-43.842 8:-743.976 9:-1000 10:-78.9826 11:956.158 12:5.68942 13:5 
-0 -0 -5.5397795307294508e-07 -0 -0.0069105913339771955 -0 -0 -0 0 0 0 0:2.10658 1:3 2:2.21325 3:11.7656 4:138.995 5:1.14286 6:5 7:0 8:-407.158 9:-999.731 10:-32.0237 11:1000 12:67.5457 13:7 
-0 -0 -0 -0 -0 -0 -0 -0 0 0.0073445400154166889 0 0:1.35164 1:3 2:3.06365 3:13.3662 4:122.644 5:-0.125 6:-1 7:-192.445 8:-733.428 9:-910.549 10:0 11:807.555 12:6.41483 13:2 
-0.084346977699252798 -0 -0 -0 -0 -0 -0 -0 0 0 0 0:1.46994 1:3 2:2.88105 3:14.2797 4:139.746 5:2.5 6:0.5 7:0 8:-565.099 9:-1000 10:-152.352 11:1000 12:115.201 13:3 
-0 -4.4775462259023495e-06 -0 -8.1527794890887419e-07 -0 -0 -0 -5.8903491613087622e-06 0 0 0 0:1.54386 1:3 2:3.24501 3:17.3832 4:125.975 5:-0.142857 6:-1 7:-15.2972 8:-488.636 9:-991.696 10:-148.164 11:984.703 12:159.091 13:1 
-0 -0 -0 -0 -0 -0 -0 -0 0 0 5.6685500225702254e-08 0:1.35289 1:3 2:2.75593 3:12.4179 4:134.925 5:-2 6:0.2 7:-1.02424 8:-631.273 9:-997.952 10:-167.975 11:998.976 12:107.887 13:3 
-0 -0 -0 -0 -0 -0.00026931735372181842 -0 -0 3.6557818657291509e-08 0.0032775718081584169 0 0:1.07896 1:3 2:2.74556 3:13.7626 4:137.175 5:-0.333333 6:-0 7:-17.2202 8:-902.214 9:-998.77 10:-48.5855 11:982.78 12:24.6002 13:5 
-0.045255186396479463 -0 -0 -0 -0 -0 -0 -0 0 0.032482759368895046 0 0:1.53244 1:3 2:2.80325 3:13.229 4:109.208 5:-0.8 6:-0.833333 7:-26.8456 8:-558.08 9:-1000 10:-168.818 11:973.154 12:94.476 13:3 
-0 -0 -0 -0 -0.068698472555371135 -0 -0.058707318265215393 -0 0 0.00053668892922930788 0 0:1.7162 1:3 2:2.84509 3:17.8761 4:122.823 5:-3 6:0.4 7:-13.0412 8:-570.683 9:-995.827 10:-4.17319 11:986.959 12:11.9979 13:6 
-0.018890963217675093 -0 -0 -0 -0 -0 -0 -0 0 0 0 0:1.79116 1:3 2:2.68495 3:12.5513 4:141.527 5:1.28571 6:-0.08 7:-159.193 8:-554.092 9:-1000 10:-39.2377 11:840.807 12:4.20404 13:3 
-0 -0 -0 -0 -0.054677733350086494 -0 -0 -0 0 0 0 0:1.65178 1:3 2:2.53976 3:13.6211 4:142.699 5:-0.28 6:-0.277778 7:-45.0627 8:-605.408 9:-1000 10:0 11:954.937 12:0 13:2 
-0 -0 -0 -0 -0 -0 -0.096050306239032782 -0 0 0 0 0:1.51693 1:3 2:2.66861 3:12.1063 4:125.442 5:0.25 6:-3 7:-171.699 8:-659.228 9:-1000 10:0 11:828.301 12:0 13:4 
-0 -5.5678814803270829e-06 -4.7620155254697888e-06 -0 -0.014578300160890054 -0 -0 -9.8131224780923373e-06 7.4876804069779891e-06 0 4.3273966166400883e-06 0:1.47836 1:3 2:3.04597 3:12.8832 4:135.457 5:-0.5 6:-0.171429 7:-145.802 8:-676.128 9:-840.155 10:0 11:854.198 12:0.298775 13:2 
-0 -0 -0 -0 -0 -1.3133451020532483e-05 -0 -0 0 0 0 0:1.17807 1:3 2:2.41435 3:9.5298 4:137.86 5:1.16667 6:-0.5 7:-169.687 8:-835.667 9:-1000 10:0 11:830.313 12:13.1796 13:2 
-0 -0 -0 -0 -0.14638307481375229 -0 -0 -0 0 0 0 0:1.63655 1:3 2:2.59875 3:14.3276 4:143.794 5:0.75 6:-0.285714 7:-38.2166 8:-609.342 9:-1000 10:0 11:961.783 12:1.69851 13:4 
-0 -0 -0 -0 -0 -0 -0.0033840363947567234 -0 0 0 0 0:1.74566 1:3 2:3.08271 3:16.8486 4:141.858 5:-0.285714 6:-0.333333 7:-127.853 8:-572.85 9:-1000 10:-67.876 11:872.147 12:0 13:6 
-0 -0 -0 -0 -0.025074827652782461 -0 -0 -0 0 0 0 0:1.67326 1:3 2:2.81414 3:16.1379 4:139.64 5:1 6:-1.66667 7:-71.7489 8:-596.82 9:-1000 10:0 11:928.251 12:0.815328 13:6 
-0 -0 -0 -0 -0.0082867840469409461 -0 -0 -0 0 0 0 0:1.5003 1:3 2:2.91614 3:15.9163 4:141.805 5:0.333333 6:-0.214286 7:-20.6924 8:-666.136 9:-917.23 10:0 11:979.308 12:0.397931 13:2 
-0 -0.00014097825002729159 -0 -0 -2.2086610236285514e-07 -0 -0 -1.7503372506211784e-05 -0 0 0 0:1.46861 1:3 2:6.32477 3:24.7659 4:108.699 5:3 6:0.5625 7:0 8:-632.878 9:-144.998 10:0 11:1000 12:48.0388 13:4 
-4.5906425409907578e-06 -0 -0 -0 -4.3568535169382856e-06 -8.81593267775706e-05 -6.8877075938837011e-06 -1.7391438841357255e-05 -7.5242382256352797e-06 1.2061271359158385e-05 1.7480090946933881e-05 0:1.05738 1:3 2:4.88452 3:20.6005 4:107.799 5:2 6:0.857143 7:-110.465 8:-929.264 9:-401.163 10:-73.6434 11:889.535 12:16.4729 13:1 
-0 -0 -0 -0 -0 -0 -0 -0 -0 0 8.9379816653432744e-05 0:0.978667 1:3 2:4.88042 3:24.0657 4:108.7 5:10 6:0.888889 7:-76.2667 8:-991.467 9:0 10:0 11:902.4 12:8.53333 13:5 
-0 -0 -0 -0 -0 -0 -0 -0 -0 0 7.7257685642871007e-06 0:1.09375 1:3 2:5.93734 3:23.6483 4:106.078 5:0 6:0.578947 7:-0.492611 8:-779.803 9:-72.9064 10:0 11:999.507 12:134.483 13:4 
-2.7379190489621315e-07 -0 -0 -0 -0 -0 -0 -0 -0 0 0 0:1.16851 1:3 2:5.75027 3:22.6498 4:105.455 5:16 6:1.08333 7:0 8:-736.17 9:-210.402 10:0 11:1000 12:119.622 13:4 
-0 -0.00012348734280605872 -0.0011851888771143417 -0 -0 -0 -0 -0 -0 0 0 0:1.77285 1:3 2:7.61697 3:31.8933 4:109.511 5:2 6:0.75 7:-54.001 8:-555.719 9:-18.6549 10:0 11:945.999 12:8.34561 13:5 
-0 -0 -0 -9.7816117814930078e-07 -0 -0 -0 -0 -0 0 5.283496719806222e-06 0:1.53705 1:3 2:6.21082 3:24.4439 4:108.87 5:0.833333 6:0.964286 7:-178.869 8:-616.667 9:0 10:0 11:821.131 12:33.9286 13:8 
-0 -0 -0.0077610606776140198 -0 -0 -0 -0 -0 -0 0 0 0:1.71757 1:3 2:6.61443 3:25.7838 4:109.172 5:-0.285714 6:0.8 7:-64.3722 8:-582.218 9:0 10:0 11:935.628 12:0 13:5 
-0 -0 -0 -0 -4.1606419973452215e-05 -0 -1 -0 -0.013566738056236748 -0 0 0:1.72693 1:3 2:3.00205 3:18.3384 4:110.79 5:-0.428571 6:-0 7:0 8:-554.735 9:-1000 10:-132.493 11:1000 12:24.3267 13:5 
-0 -0 -0 -0 -0 -0 -0 -0 -0.01488896320453359 -0 0 0:1.40859 1:3 2:2.98757 3:17.0291 4:110.826 5:0.285714 6:-0 7:0 8:-620.944 9:-1000 10:-25.5654 11:1000 12:88.9872 13:7 
-0 -0 -0 -0 -0 -3.8857956016301143e-06 -0 -0 -0 -0 0 0:1.23049 1:3 2:3.4769 3:18.0052 4:106.669 5:-0.25 6:1 7:-18.981 8:-709.291 9:-999.5 10:-210.29 11:981.019 12:103.397 13:2 
-0 -0 -0 -0 -0.0021430155134501152 -0 -0 -0 -0 -0 0 0:1.66974 1:3 2:3.52367 3:25.2484 4:110.959 5:0.318182 6:-0.333333 7:-18.0723 8:-573.795 9:-961.345 10:-1.00402 11:981.928 12:25.1004 13:7 
-0.0006049961432640134 -7.5857038976079614e-06 -0 -8.8380103534619577e-07 -0 -0 -0.010688340427215818 -6.9411443274909182e-06 -0.0035333944204713262 -0 3.5660433702359781e-06 0:1.32871 1:3 2:4.45744 3:18.0068 4:113.6 5:0.125 6:-0 7:-152.089 8:-674.282 9:-817.232 10:-184.726 11:847.911 12:78.329 13:6 
-0.0021198906030650711 -0 -0 -0 -0 -0 -0 -0 -0 -0 0 0:1.52818 1:3 2:3.80021 3:22.4384 4:103.333 5:0.5 6:-0.5 7:-58.125 8:-529.375 9:-994.375 10:-155 11:941.875 12:125 13:3 
-0.0036302799649318603 -0 -0 -0 -0 -0 -0 -0 -0.011652464440457767 -0 0 0:1.31001 1:3 2:4.09781 3:19.3978 4:104.262 5:0.3125 6:-2 7:-155.125 8:-655.323 9:-998.021 10:-241.393 11:844.875 12:108.033 13:0 
-0.002328019398987601 -0 -0 -0 -0 -0 -0 -0 -0 -0 0 0:1.76265 1:3 2:3.50675 3:19.1275 4:92.6324 5:-1.14286 6:-0.5 7:-100.993 8:-495.033 9:-982.34 10:-169.978 11:899.007 12:72.2958 13:5 
-0 -0 -0 -0 -0 -0 -0.53921644048558304 -0 -0 -0 0 0:1.44493 1:3 2:3.36458 3:18.4626 4:105.568 5:2 6:0 7:-123.83 8:-692.075 9:-999.725 10:-90.809 11:876.17 12:0 13:5 
-0 -6.1297786157872394e-06 -7.5742981505085077e-06 -0 -0 -7.0069226698688436e-05 -0 -1.7292239207987216e-05 -0 -1.2061271359158383e-05 2.7232486521179213e-06 0:1.44264 1:3 2:3.64625 3:15.8159 4:96.16 5:0.333333 6:-2 7:-132.082 8:-691.468 9:-721.502 10:-0.682594 11:867.918 12:1.70648 13:4 
-0 -0 -0 -0 -0.00038086919040361897 -0 -0 -0 -0 -0 0 0:1.53161 1:3 2:3.35094 3:21.3608 4:105.665 5:-0.583333 6:-0.3125 7:-96.8105 8:-652.908 9:-1000 10:0 11:903.189 12:0 13:4 
-0 -6.455104302611616e-08 -0 -0 -0 -0 -0 -0 -0 -0 0 0:1.248 1:3 2:3.68311 3:20.5421 4:98.3438 5:-0.0526316 6:-1 7:0 8:-666.786 9:-999.643 10:-204.067 11:1000 12:134.499 13:2 
-0 -0 -0 -0 -0 -6.5153238361317312e-06 -0 -0 -0 -0 -0 0:0.751733 1:3 2:5.22258 3:17.66 4:88.6288 5:2 6:0.571429 7:-51.0397 8:-967.234 9:-218.021 10:-289.855 11:700.693 12:32.7662 13:6 
-0 -0 -2.1344219668144691e-05 -0 -0 -3.7974575995424366e-06 -0 -0 -0 -0 -0 0:0.851936 1:3 2:6.24203 3:18.9988 4:97.8122 5:-1.4 6:11 7:-17.4639 8:-795.748 9:-212.604 10:-181.473 11:834.472 12:204.252 13:4 
-0 -0 -0 -2.6247572846956131e-07 -0 -0 -0 -0 -0 -0 -0 0:0.612653 1:3 2:5.1356 3:18.4671 4:86.6875 5:0.357143 6:-0 7:-46.4816 8:-840.542 9:-67.7857 10:-185.926 11:566.172 12:159.458 13:6 
-8.3441319054628318e-06 -6.9863075376712499e-05 -0 -1.0833240000042427e-06 -3.6082707634966736e-06 -0 -6.3367888503724684e-06 -2.3812601398219122e-05 -4.3840821168657914e-06 -0 -6.2892920223538998e-06 0:0.867448 1:3 2:8.01443 3:21.7872 4:85.883 5:0.428571 6:0.375 7:-27.127 8:-757.09 9:-301.48 10:-289.149 11:840.321 12:242.91 13:5 
-0 -5.4668308731733191e-05 -0 -0 -0 -0 -0 -0 -0 -0 -0 0:1.03923 1:3 2:6.08384 3:14.7617 4:94.3935 5:-1.66667 6:1.66667 7:-88.5757 8:-954.706 9:-163.06 10:-339.708 11:911.424 12:7.54907 13:5 
-0 -0 -1.7702173324498812e-06 -0 -0 -5.7008426217693061e-07 -0 -0 -0 -0.00011986917288445995 -0 0:0.839567 1:3 2:4.01137 3:14.5863 4:98.2704 5:5 6:9 7:-14.8716 8:-953.132 9:-52.7265 10:-81.5683 11:824.696 12:46.868 13:4 
