svm_type c_svc
kernel_type linear
nr_class 2
total_sv 4
rho 2.1246179192996131
label 14 15
nr_sv 3 1
SV
9.2368884000677288e-07 0:1.20659 1:4 2:3.76067 3:22.871 4:101.209 5:-1.5 6:-1.33333 7:-99.7899 8:-824.93 9:-1000 10:-96.9888 11:900.21 12:3.85154 13:6 
1.4161278343066383e-06 0:0.945439 1:4 2:3.83868 3:20.6663 4:100.342 5:0 6:-0.571429 7:-87.809 8:-996.59 9:-945.439 10:-228.19 11:857.63 12:3.41006 13:4 
1.7466037417086494e-06 0:1.38808 1:4 2:3.34829 3:20.5712 4:100.51 5:-0.75 6:-0.5 7:-1.49309 8:-712.579 9:-1000 10:-142.591 11:998.507 12:7.83875 13:6 
-4.0864204160220609e-06 0:1.2362 1:4 2:5.50068 3:22.8653 4:90.7672 5:-2 6:5 7:-78.125 8:-746.875 9:-309.375 10:0 11:921.875 12:62.0536 13:5 
