svm_type c_svc
kernel_type linear
nr_class 10
total_sv 201
rho -1.1003513761195216 11.637541476387367 -1.8686180267589081 -1.1199402260243996 -0.58852335321972271 2.7271357624282726 -1.0656368120748756 0.80970231444698726 -1.1676581589901305 2.2551363595686165 40.470013414411952 4.6040387678624661 21.694003551997337 12.129271880611327 -42.664689303707931 0.97375089666966119 -1.4415315213300399 -3.3546455571814895 -3.2957052717386666 -7.7291010330652794 3.4515379537773527 -2.2136450254836806 7.4590952884030717 -2.397689909489011 -7.6057566780351662 4.2090183249621509 -6.8177550857915286 -11.659930650732871 1.8480329913451552 -1.4889610505555524 27.3047567834438 16.033462853282597 -12.237865437624553 0.78862024544928266 -87.126210303861484 3.3558682123811892 -5.8484314294467223 0.53038979335981529 -2.5397071786866201 -68.835526367992131 -2.2579704709348003 1.8282528715549089 0.7089924056545629 -2.7037926079330856 -1.009998252785437
label 0 1 8 2 3 6 7 9 5 13
nr_sv 12 11 24 9 60 8 54 21 1 1
SV
0 0.98377171879104952 0 0 0 0 0 0 0 0:1.1526 1:2 2:3.11062 3:6.56712 4:128.715 5:0.22 6:1.24 7:-369.561 8:-672.51 9:0 10:0 11:630.439 12:195.092 13:3 
0 0.42140224481718758 0 0 0 0 0 0 0 0:0.690104 1:2 2:4.83057 3:11.2637 4:111.176 5:0.0869565 6:1.58974 7:-41.1784 8:-577.148 9:-45.2474 10:0 11:648.926 12:422.852 13:5 
0 0.51322959306359384 0 0 2.471302690795925e-07 0 0 0 0 0:0.690104 1:2 2:4.83057 3:11.2637 4:111.176 5:0.0869565 6:1.58974 7:-41.1784 8:-577.148 9:-45.2474 10:0 11:648.926 12:422.852 13:5 
0 0 0 0 0 4.2197930149434583e-05 0 0 0 0:1.73803 1:1 2:3.67253 3:10.6406 4:114.48 5:-1.51515 6:0.671053 7:-479.203 8:-473.586 9:0 10:0 11:520.797 12:101.779 13:4 
0 0.015332197016947673 0 0 0 0 0 0 0 0:2.06457 1:1 2:2.58956 3:8.29522 4:115.653 5:-1.15385 6:0.481481 7:-665.281 8:-395.685 9:0 10:0 11:334.719 12:88.6778 13:7 
1.2396703845267108e-06 0.374778554159793 0 1.0690136819475646e-06 9.1222499051844012e-07 0 0 7.8699529646880932e-06 9.4904456727658794e-07 0:1.03958 1:2 2:4.25844 3:8.08623 4:128.602 5:0.2 6:-2 7:-102.204 8:-652.639 9:-33.4001 10:-1.33601 11:897.796 12:309.285 13:5 
8.2553459126991794e-07 0 7.4170915422007556e-07 2.0036147085195689e-06 7.3303954818854372e-07 0 3.2308525685630365e-06 0 8.2328089601263378e-07 0:1.37408 1:1 2:5.36021 3:11.2569 4:107.968 5:-0.0769231 6:0.923077 7:-583.378 8:-508.258 9:-296.217 10:-58.0714 11:416.622 12:219.499 13:5 
0 0 7.7332780871149864e-06 0 0 0 0 0 0 0:0.935901 1:2 2:3.96101 3:11.5719 4:111.693 5:-0.76 6:0 7:-116.919 8:-822.558 9:0 10:0 11:818.982 12:177.442 13:6 
0 0 0 0 2.9063460798598104e-06 1.7208810195038658e-05 0 0.00025356854512387385 0 0:1.27329 1:2 2:5.35508 3:11.8403 4:116.362 5:-2.28571 6:0.75 7:-186.69 8:-537.973 9:0 10:0 11:813.31 12:247.396 13:6 
0 1 0 0 0 0 0 0 0 0:1.15821 1:2 2:3.2348 3:6.60589 4:146.201 5:-1 6:-0.306748 7:-298.693 8:-724.183 9:0 10:-49.0196 11:701.307 12:139.216 13:3 
0 0.37156061946357843 0 0 0 0 0 0 0 0:1.26179 1:2 2:4.88483 3:11.9029 4:114.576 5:-1.0625 6:7 7:-254.448 8:-579.359 9:-1.06762 10:-3.91459 11:745.552 12:213.167 13:4 
0 0.12892800863439494 0 0 0 0 0 0 0 0:1.33647 1:2 2:4.73618 3:10.6454 4:119.984 5:20 6:0.934375 7:-270.709 8:-530.861 9:0 10:0 11:729.291 12:217.38 13:4 
-0 0 0 0 0 0.0010189975109735519 0.0010711045077816468 0 0 0:2.69711 1:2 2:1.08877 3:3.34284 4:161.085 5:0.627907 6:0.313725 7:-37.3372 8:-26.0492 9:-1000 10:-370.767 11:962.663 12:344.718 13:2 
-4.4890990879577078e-07 3.1399324191649679e-06 2.7054459917484324e-05 0 0.00034210417958118209 0 0 6.3736670393423176e-07 0 0:2.92157 1:2 2:1.18162 3:3.84991 4:143.063 5:0.235294 6:-0.230769 7:-8.72483 8:-2.90828 9:-919.016 10:-342.282 11:991.275 12:339.374 13:1 
-0 0 0 0 0 0 0.0030364649188846359 0 0 0:3.74251 1:2 2:1.03936 3:4.17755 4:148.704 5:1 6:0 7:-9.6 8:-8 9:-993.067 10:-265.067 11:990.4 12:259.2 13:2 
-0 0 0 0.00088105343130253028 0 0.041327719432730795 0.0062821732959436639 0 4.7868464604377865e-07 0:5.38247 1:2 2:1.1819 3:7.27006 4:128.559 5:0.5 6:0 7:-1.48038 8:-120.651 9:-982.976 10:-180.607 11:998.52 12:65.1369 13:1 
-0 0 0 0 0 0 0.0010704233048768118 0 0 0:55.8 1:2 2:1.06228 3:59.9615 4:143.799 5:0.333333 6:0.5 7:-21.5054 8:-8.96057 9:-997.312 10:0 11:978.495 12:8.96057 13:2 
-0 0 0 0 0 0 0.0032491496801332876 0 0 0:4.78279 1:2 2:1.11514 3:5.61545 4:146.616 5:0.666667 6:-2 7:-41.1311 8:-18.8518 9:-994.002 10:-209.083 11:958.869 12:190.231 13:2 
-0 0 4.798983312054879e-06 0.00025568909632773704 0 0 0 0 0 0:14.2667 1:2 2:1.3419 3:18.9369 4:164.338 5:0.0689655 6:-0.285714 7:-144.081 8:-67.3676 9:-1000 10:0 11:855.919 12:2.72586 13:3 
-0 0 1.3340440758482849e-05 0 0 0 0 0 0 0:13.7745 1:2 2:1.12173 3:15.5679 4:144.021 5:0.142857 6:0.214286 7:-8.03213 8:-64.257 9:-954.279 10:-11.1214 11:991.968 12:8.34106 13:4 
-0 0 0 0 0 0.0063838741932845172 0 0 0 0:2.69711 1:2 2:1.08877 3:3.34284 4:161.085 5:0.627907 6:0.313725 7:-37.3372 8:-26.0492 9:-1000 10:-370.767 11:962.663 12:344.718 13:2 
-0 0 0 0 0.0001790892440354761 0 0 0 4.74769698554472e-06 0:2.05553 1:2 2:1.00438 3:2.56131 4:172.299 5:1 6:0.333333 7:-0.491159 8:-0.491159 9:-1000 10:-486.493 11:999.509 12:486.002 13:0 
-1.6162950670008577e-06 1.5830860644338657e-06 0.0009213262007702485 0.0010901956566880242 0 0.0029697089840931305 0.0069380935763967448 1.2845752902895901e-06 1.1337455977030459e-05 0:2.08196 1:2 2:1.04984 3:2.72419 4:163.526 5:-1.84615 6:-1.85714 7:-9.59312 8:-454.185 9:-1000 10:0 11:990.407 12:26.133 13:0 
-0 -0 3.5116684004283864e-06 0 0 0 0 0 0 0:1.33039 1:2 2:6.33405 3:9.78023 4:126.18 5:0.285714 6:1.26087 7:-91.7431 8:-421.386 9:-167.036 10:0 11:908.257 12:330.275 13:5 
-0 -0 0 0 0 0 0 0.0010234055390641115 0 0:1.36948 1:2 2:5.76305 3:9.85127 4:135.195 5:0.103448 6:1.20833 7:-48.9991 8:-462.803 9:0 10:0 11:951.001 12:267.404 13:5 
-0 -0 0 0 0 0 0 1.6769367577026408e-05 0 0:2.81126 1:2 2:22.0978 3:17.8102 4:130.131 5:-3.44444 6:-8 7:-62.819 8:-121.319 9:0 10:-216.333 11:937.181 12:234.393 13:5 
-1 -0 1.4478406516166007e-06 0 0 0 0 1.7714896516064796e-05 0 0:0.72945 1:2 2:3.01398 3:7.65643 4:126.204 5:0.272727 6:1.27273 7:-114.317 8:-775.721 9:0 10:0 11:615.133 12:224.279 13:5 
-1 -0 0 0 0 3.6253025649629508e-05 0 0.0020183479169630959 0 0:1.16735 1:2 2:3.11786 3:7.33685 4:126.021 5:0.179104 6:1.07692 7:-413.493 8:-689.608 9:0 10:0 11:586.507 12:167.029 13:3 
-0.32741678800135443 -0 0 0 0 0 0 0 0 0:1.06995 1:2 2:4.77058 3:9.04134 4:134.773 5:-0.333333 6:1.4 7:-135.048 8:-602.001 9:-40.7288 10:0 11:864.952 12:332.619 13:3 
-0 -0 0 0 0 0 0 0.00193552194228894 0 0:1.73359 1:2 2:7.71297 3:12.6717 4:120.252 5:0.641026 6:-1 7:-62.276 8:-347.446 9:-15.905 10:0 11:937.724 12:229.391 13:6 
-0 -0 0 0 0 0 0 0.0020910015451268103 0 0:1.42143 1:2 2:6.16449 3:10.0445 4:127.597 5:0.529412 6:-2 7:-161.239 8:-400.473 9:0 10:-0.52521 11:838.761 12:303.046 13:3 
-0 -0 0 0 0 0 0 0.0048323144563667897 0 0:1.73359 1:2 2:7.71297 3:12.6717 4:120.252 5:0.641026 6:-1 7:-62.276 8:-347.446 9:-15.905 10:0 11:937.724 12:229.391 13:6 
-0 -0 0 0 0 0 0 7.0357618352571408e-05 0 0:1.42143 1:2 2:6.16449 3:10.0445 4:127.597 5:0.529412 6:-2 7:-161.239 8:-400.473 9:0 10:-0.52521 11:838.761 12:303.046 13:3 
-0.78899937031692025 -0 0 0 0 0 0 0.0055313815652222138 0 0:1.13812 1:2 2:4.46055 3:8.49991 4:130.096 5:0.301887 6:1.41667 7:-150.719 8:-593.84 9:0 10:0 11:849.281 12:284.805 13:3 
-0 -2.4162463149544599e-06 6.6188573751738784e-06 9.8660028882436706e-06 2.2375253691599163e-05 0 1.5511304092910066e-06 0 5.0911035701155957e-06 0:1.9497 1:2 2:7.57744 3:10.6974 4:136.29 5:-1.75 6:-1.04762 7:-99.7824 8:-509.481 9:-381.411 10:-382.033 11:900.218 12:3.41933 13:5 
-0 -0 0 0 0 4.2344316221645013e-05 0 0 0 0:2.88862 1:2 2:25.5172 3:16.043 4:134.089 5:-1.14286 6:-0.6 7:-172.115 8:-338.642 9:-253.982 10:-295.893 11:827.885 12:7.54401 13:5 
-0 -0 0 0 1.2827330839236519e-05 0 0 0 0 0:2.2742 1:2 2:20.0636 3:14.2484 4:131.36 5:-0.344262 6:1.05556 7:-59.6911 8:-17.6138 9:-183.197 10:0 11:940.309 12:422.101 13:5 
-0.067218852441954177 -0 0 0 0 0 0 0 0 0:1.15844 1:2 2:5.43213 3:9.86924 4:129.019 5:0.047619 6:1.32258 7:-165.69 8:-511.137 9:0 10:0 11:834.31 12:352.091 13:5 
-0.060065037566305747 -0 0 0 7.6565702439908238e-06 0 0 0 0 0:0.681886 1:2 2:6.88245 3:23.7407 4:98.8739 5:-1.42857 6:3.30769 7:-15.2195 8:-143.321 9:-267.812 10:-670.536 11:666.667 12:856.679 13:4 
-0.059254420494533756 -0 0 0 0 0 0 0 0 0:1.2625 1:2 2:12.5626 3:12.7429 4:105.884 5:1.5 6:1.42857 7:-374.587 8:-286.579 9:-303.08 10:-44.0044 11:625.413 12:505.501 13:3 
-0 -5.8150875788024973e-07 0 0 0 0 0 0 0 0:2.90691 1:2 2:26.3624 3:16.7704 4:136.924 5:0.05 6:0.478261 7:-209.31 8:-0.660284 9:-285.573 10:-50.5117 11:790.69 12:343.348 13:5 
-0.036622453862360647 -0 0 0 0 0 0 0 0 0:2.00949 1:2 2:14.5811 3:18.3649 4:114.707 5:-4 6:-0.357143 7:-225.219 8:-428.186 9:-213.756 10:-221.173 11:774.781 12:69.4538 13:7 
-0 -0 0 0 0 6.8902121043081603e-05 0 0 0 0:2.47317 1:2 2:15.9768 3:18.7942 4:118.737 5:-0.75 6:-0.583333 7:-170.151 8:-314.898 9:-247.42 10:-160.625 11:829.849 12:89.4417 13:3 
-0 -1.7252634107641239e-06 0 0 1.9549706519184149e-05 0 0 0 0 0:1.74746 1:2 2:19.4027 3:16.359 4:112.787 5:0.125 6:-0.3 7:-251.11 8:-85.7533 9:-340.622 10:-215.579 11:748.89 12:486.505 13:6 
-0 -0 0 2.2265485020029271e-06 0 7.7193227280122238e-06 5.4234087737330079e-06 0 0 0:1.83315 1:2 2:57.1016 3:16.2592 4:107.644 5:0.625 6:-1 7:-380.782 8:-226.201 9:-421.068 10:-259.326 11:619.218 12:319.308 13:6 
-0.14532740034353919 -0 0 0 0 0 0 0 0 0:1.14211 1:2 2:3.53349 3:6.98205 4:138.146 5:7 6:1.25 7:-287.985 8:-637.725 9:0 10:0 11:712.015 12:237.848 13:4 
-0.32409861291959224 -0 0 0 0 0 0 0 0 0:1.32822 1:2 2:4.19164 3:8.08154 4:125.558 5:0.275 6:0.95 7:-318.995 8:-494.515 9:0 10:0 11:681.005 12:258.372 13:5 
-5.7587996228323729e-06 -0 -7.9896388322676056e-06 0 3.1763908113396666e-06 0 0 4.0616509664493161e-06 0 0:1.19669 1:2 2:2.46982 3:6.21553 4:146.038 5:0.6 6:1.41463 7:-46.1435 8:-835.635 9:-437.521 10:0 11:953.857 12:0 13:2 
-2.7161876185026909e-06 -0 -0 0 0 0 0 0 0 0:0.719332 1:2 2:1.80506 3:5.30084 4:151.285 5:1.6 6:3.13333 7:-39.9781 8:-1000 9:-452.629 10:0 11:679.354 12:0 13:2 
-0 -0 -0 0 0 8.3733095152915257e-05 0 0 3.1378270456763338e-06 0:1.39774 1:2 2:2.26464 3:7.31258 4:132.519 5:-0.0869565 6:1.83333 7:-97.8456 8:-707.81 9:-869.838 10:-56.553 11:902.154 12:7.63016 13:2 
-0 -0.00096652008475827051 -0 0.00025607818022421817 0 0.0034261154283272898 0.00023651007258850812 0 7.9781786016224395e-06 0:2.0807 1:2 2:1.86509 3:7.86504 4:138.308 5:-0.2 6:0 7:-17.4255 8:-439.011 9:-962.901 10:0 11:982.574 12:41.5964 13:2 
-0 -0 -0 0.00037879403247945343 0 0.0029717869177828538 0 0 0 0:1.64788 1:2 2:2.06287 3:7.41845 4:138.942 5:-0.0909091 6:5.54545 7:-107.374 8:-570.86 9:-962.952 10:0 11:892.626 12:35.9809 13:2 
-0 -0 -0 0 2.1813640607208741e-05 0 0.0001002941262745561 0 0 0:1.99209 1:2 2:2.06615 3:7.13878 4:144.486 5:0.7 6:14.6667 7:-34.1861 8:-284.186 9:-905.712 10:-1.54389 11:965.814 12:217.799 13:2 
-0 -0 -0 0 0 0 0 0 4.5917959928146491e-07 0:1.81363 1:2 2:2.16948 3:6.94294 4:128.619 5:-0.285714 6:9 7:-48.3129 8:-356.595 9:-883.436 10:-16.1043 11:951.687 12:194.785 13:2 
-0 -0 -3.5887275949512608e-06 0 0 0 0 1.1411369939404061e-06 0 0:1.30028 1:2 2:2.89595 3:8.15011 4:134.985 5:-0.666667 6:7 7:-6.42674 8:-452.014 9:-743.359 10:0 11:993.573 12:317.052 13:2 
-0 -0 -0 0 0 0.0040980143945302267 0 0 0 0:1.87442 1:2 2:2.30354 3:7.51354 4:134.237 5:-0.5 6:8 7:-119.989 8:-529.929 9:-808.896 10:0 11:880.011 12:3.56947 13:2 
-0 -0 -0 -0 0 0 0 0 0.00065485944368219888 0:2.12419 1:2 2:2.28455 3:9.46505 4:126.291 5:-0.111111 6:-2 7:-65.2617 8:-470.428 9:-989.123 10:-455.472 11:934.738 12:0.339905 13:4 
-0 -0 -0 -0 0 0 0.0004598212495157534 0 0 0:2.10744 1:2 2:2.26086 3:9.48734 4:107.753 5:42 6:-2.6 7:-76.8466 8:-264.611 9:-991.544 10:-474.509 11:923.153 12:209.898 13:4 
-0 -0 -0 -0 0 0 0.00054713347317165203 0 0 0:2.10744 1:2 2:2.26086 3:9.48734 4:107.753 5:42 6:-2.6 7:-76.8466 8:-264.611 9:-991.544 10:-474.509 11:923.153 12:209.898 13:4 
-0 -0.00022056710886960427 -0 -0 0 0 0 0 0 0:2.58835 1:2 2:1.45638 3:5.78703 4:129.02 5:-0.0625 6:0.37931 7:-7.46083 8:-123.725 9:-1000 10:-386.347 11:992.539 12:262.621 13:6 
-0 -0 -0 -0 0 0 0.061748538204289098 0 0 0:2.15702 1:2 2:1.31296 3:4.09262 4:121.247 5:-0.541667 6:0.555556 7:-14.1596 8:-104.781 9:-1000 10:-463.602 11:985.84 12:358.821 13:3 
-0 -0 -0 -0 0 1 0 0 0 0:2.43932 1:2 2:1.50277 3:5.09238 4:145.879 5:-0.37931 6:0.84 7:-43.405 8:-313.294 9:-1000 10:-409.951 11:956.595 12:96.6572 13:4 
-0 -0 -0 -0 0 1 0 0 0 0:2.95568 1:2 2:1.39599 3:5.19117 4:145.845 5:-0.225 6:0.509091 7:-58.1295 8:-219.491 9:-1000 10:-338.331 11:941.87 12:118.84 13:4 
-0 -0 -0 -0 0 1 0 0 0 0:2.68059 1:2 2:1.40903 3:5.08126 4:148.083 5:0.666667 6:0.434211 7:-29.7892 8:-256.989 9:-1000 10:-373.052 11:970.211 12:116.063 13:4 
-0 -0 -0 -0 0 0 0.002053416932003926 0 0 0:2.0828 1:2 2:2.40014 3:8.39945 4:119.354 5:-0.580645 6:0 7:-214.975 8:-448.861 9:-1000 10:-159.398 11:785.025 12:31.2621 13:4 
-0 -0 -0 -0 0 0.38790553883058165 0 0 0 0:3.11716 1:2 2:1.55192 3:6.71336 4:136.782 5:-0.0952381 6:2 7:-54.8367 8:-320.394 9:-1000 10:-290.614 11:945.163 12:0.410762 13:4 
-0 -0 -0 -0 0 0 0.0024048675655485739 0 0 0:4.5329 1:2 2:1.65121 3:10.4028 4:124.132 5:-1.72727 6:-1 7:-82.5505 8:-205.807 9:-999.431 10:-173.356 11:917.449 12:14.8022 13:5 
-0 -0 -0 -0 0 1 0 0 0 0:3.36645 1:2 2:1.52323 3:6.83877 4:137.103 5:-0.473684 6:0.357143 7:-64.2955 8:-290.405 9:-1000 10:-291.186 11:935.705 12:6.64452 13:4 
-0 -0 -0 -0 0 1 0 0 0 0:4.00086 1:2 2:1.41981 3:7.03301 4:136.396 5:-1.15385 6:0.727273 7:-67.1112 8:-208.217 9:-1000 10:-249.946 11:932.889 12:41.7294 13:4 
-0 -0 -0 -0 0 1 0 0 0 0:2.96898 1:2 2:1.3914 3:5.17127 4:139.489 5:-0.136364 6:1 7:-61.1383 8:-201.867 9:-1000 10:-336.816 11:938.862 12:134.949 13:4 
-0 -0 -0 -0 0 0.47232632666460006 0 0 0 0:2.83281 1:2 2:1.36843 3:4.75555 4:140.675 5:-0.95 6:0.5 7:-76.1984 8:-145.47 9:-1000 10:-353.006 11:923.802 12:207.537 13:4 
-0 -0 -0 -0 0 1 0 0 0 0:2.94928 1:2 2:1.81027 3:6.99773 4:134.587 5:-0.225806 6:0.361111 7:-159.252 8:-335.888 9:-1000 10:-204.86 11:840.748 12:3.17757 13:4 
-0 -0 -0 -0 0 1 0 0 0 0:2.70488 1:2 2:1.57506 3:5.83356 4:145.724 5:0.363636 6:0.5 7:-68.2296 8:-335.738 9:-1000 10:-369.702 11:931.77 12:33.9645 13:4 
-0 -0 -0 -0 0 0 0.067027241239069391 0 0 0:3.46154 1:2 2:1.72498 3:7.51787 4:143.399 5:-0.581818 6:0.583333 7:-159.857 8:-258.781 9:-1000 10:-103.704 11:840.143 12:30.1075 13:5 
-0 -0 -0 -0 0 1 0 0 0 0:3.79248 1:2 2:1.47397 3:7.21856 4:141.148 5:-0.170213 6:0.320988 7:-74.106 8:-262.531 9:-1000 10:-125.377 11:925.894 12:1.14893 13:4 
-0 -0 -0 -0 0 1 0 0 0 0:2.82027 1:2 2:1.43696 3:5.39152 4:141.143 5:-0.189189 6:0.941176 7:-46.3313 8:-226.74 9:-1000 10:-354.576 11:953.669 12:127.837 13:4 
-0 -0 -0 -0 0 1 0 0 0 0:3.39153 1:2 2:1.54734 3:6.80993 4:149.376 5:-0.8 6:3.5 7:-84.7076 8:-281.109 9:-1000 10:-251.374 11:915.292 12:13.7431 13:3 
-0 -0 -0 -0 0 1 0 0 0 0:2.68687 1:2 2:1.74707 3:6.71079 4:136.583 5:-0.0625 6:0.702703 7:-96.1964 8:-371.296 9:-1000 10:-333.481 11:903.804 12:0.884564 13:4 
-0 -0 -0 -0 0 1 0 0 0 0:4.5658 1:2 2:1.40188 3:8.20154 4:141.929 5:-1 6:5 7:-45.1625 8:-216.633 9:-1000 10:-168.533 11:954.838 12:2.38663 13:4 
-0 -0 -0 -0 0 1 0 0 0 0:3.2845 1:2 2:1.57394 3:7.0728 4:139.837 5:0 6:2 7:-72.4569 8:-304.225 9:-1000 10:-209.818 11:927.543 12:0.236016 13:4 
-0 -0 -0 -0 0 1 0 0 0 0:3.11524 1:2 2:1.63532 3:7.15411 4:138.608 5:0.28125 6:2.38462 7:-82.6141 8:-321.003 9:-1000 10:-190.095 11:917.386 12:0 13:4 
-0 -0 -0 -4.0381179414813808e-05 0 0 0 0 0 0:1.49117 1:2 2:2.78206 3:9.53792 4:102.952 5:-0.454545 6:0.125 7:-23.6769 8:-602.368 9:-894.847 10:-342.618 11:976.323 12:68.2451 13:2 
-0 -0 -0 -0 0 1 0 0 0 0:2.39889 1:2 2:1.59837 3:5.49331 4:137.804 5:-0.190476 6:0.510204 7:-112.511 8:-416.579 9:-1000 10:-86.8865 11:887.489 12:0.280053 13:4 
-0 -0 -0 -0 0 1 0 0 0 0:2.23429 1:2 2:1.57737 3:5.13477 4:132.584 5:-1.57143 6:0.266667 7:-124.448 8:-439.47 9:-1000 10:-43.1517 11:875.552 12:8.10015 13:7 
-0 -0 -0 -0 0 1 0 0 0 0:2.57335 1:2 2:1.47781 3:5.4231 4:127.045 5:-4 6:0.115385 7:-85.1414 8:-383.211 9:-1000 10:-25.4377 11:914.859 12:5.3868 13:4 
-0 -0.0010362053701258235 -0 -0 0 1 0 0 0 0:3.51571 1:2 2:1.36922 3:6.53816 4:140.24 5:3 6:0.20339 7:-22.2137 8:-284.438 9:-1000 10:-94.9828 11:977.786 12:0 13:4 
-0 -0 -0 -0 0 1 0 0 0 0:3.02306 1:2 2:1.49928 3:6.36142 4:138.598 5:0.266667 6:0.271186 7:-60.7549 8:-330.791 9:-1000 10:-98.5005 11:939.245 12:0 13:6 
-0 -0 -0 -0.00059449103328885783 0 1 0 0 0 0:2.01757 1:2 2:1.56674 3:5.34876 4:134.407 5:0.2 6:0.0555556 7:-85.2255 8:-495.645 9:-1000 10:-2.48834 11:914.774 12:0 13:3 
-0 -0 -0 -0 0 1 0 0 0 0:2.73692 1:2 2:1.48643 3:5.53698 4:138.612 5:0.388889 6:0.205882 7:-77.2587 8:-365.375 9:-1000 10:-112.038 11:922.741 12:0 13:4 
-0 -0 -0 -0 0 1 0 0 0 0:3.1151 1:2 2:1.48384 3:6.42934 4:143.324 5:1.03846 6:0.229167 7:-54.3763 8:-321.017 9:-1000 10:-113.208 11:945.624 12:0 13:4 
-0 -0 -0 -0 0 1 0 0 0 0:3.37471 1:2 2:1.48197 3:6.84117 4:134.467 5:0.545455 6:0.314815 7:-51.1494 8:-296.322 9:-1000 10:-145.632 11:948.851 12:0 13:4 
-0 -0 -0 -0 0 1 0 0 0 0:3.33006 1:2 2:1.51509 3:6.8015 4:136.066 5:0.891892 6:0.174603 7:-80.1923 8:-300.295 9:-1000 10:-91.2052 11:919.808 12:0 13:2 
-0 -0 -0 -0 0 1 0 0 0 0:2.80041 1:2 2:1.63494 3:6.08266 4:132.504 5:0.762712 6:0 7:-136.752 8:-357.091 9:-1000 10:-97.4938 11:863.248 12:0 13:2 
-0 -0 -0 -0 0 0.44770536573418213 0 0 0 0:2.77641 1:2 2:1.70728 3:6.58132 4:136.501 5:-0.210526 6:0.418605 7:-112.315 8:-359.322 9:-1000 10:-200.399 11:887.685 12:0.855188 13:4 
-0 -0 -0 -0 0 0.32851912761526453 0 0 0 0:4.0845 1:2 2:1.5291 3:8.19046 4:137.476 5:0.526316 6:0.454545 7:-80.4169 8:-244.828 9:-1000 10:-135.324 11:919.583 12:0 13:4 
-0 -0 -0 -0 0 1 0 0 0 0:2.9816 1:2 2:1.59581 3:6.49123 4:137.109 5:0.805556 6:0.253165 7:-81.8871 8:-335.39 9:-1000 10:-225.993 11:918.113 12:0 13:4 
-0 -0 -0 -0 0 1 0 0 0 0:3.12718 1:2 2:1.51638 3:7.31394 4:131.936 5:-1.5 6:0.666667 7:0 8:-319.777 9:-1000 10:-188.858 11:1000 12:0 13:3 
-0 -0 -0 -0 0.00062372239473176892 0 0.0010619507460632473 0 0 0:3.45175 1:2 2:1.90386 3:9.92656 4:113.842 5:-0.8 6:-0.666667 7:-35.5781 8:-214.104 9:-926.302 10:-216.645 11:964.422 12:75.6036 13:4 
-0 -0 -0 -0 0 0 0 0 0.0020720192315804697 0:2.45981 1:2 2:1.86022 3:7.98381 4:131.277 5:-0.666667 6:-2.28571 7:-17.8649 8:-402.614 9:-985.621 10:-365.142 11:982.135 12:3.92157 13:4 
-0 -0 -0 -0 0 0.98301846076029942 0 0 0 0:2.06861 1:2 2:1.90399 3:6.68322 4:135.814 5:-5 6:-0.65 7:-19.7044 8:-483.415 9:-936.946 10:-260.099 11:980.296 12:0 13:5 
-0 -0 -0 -0 0 1 0 0 0 0:2.31069 1:2 2:1.64906 3:6.29115 4:129.254 5:-4.33333 6:1.33333 7:-70.6692 8:-424.953 9:-1000 10:-54.0963 11:929.331 12:7.81739 13:2 
-0 -0 -0 -0 0 1 0 3.4680813864951461e-09 0 0:1.97248 1:2 2:1.69674 3:6.01367 4:130.086 5:-0.375 6:-0.166667 7:-103.295 8:-504.898 9:-1000 10:0 11:896.705 12:2.07777 13:3 
-0 -0.00097016570532286266 -0 -0 0 0 0.065828686059148503 0 0 0:3.01741 1:2 2:1.52851 3:7.16013 4:115.95 5:0.444444 6:-0 7:-44.5726 8:-320.661 9:-1000 10:0 11:955.427 12:10.7499 13:4 
-0 -0 -0 -0 0 1 0 0 0 0:2.00167 1:2 2:1.5661 3:5.05599 4:123.889 5:-5.5 6:0.272727 7:-112.316 8:-492.911 9:-1000 10:-1.11204 11:887.684 12:6.67223 13:5 
-0 -0 -0 -0 0 1 0 0 0 0:1.85121 1:2 2:1.56894 3:4.498 4:138.828 5:3.5 6:2 7:-145.161 8:-537.999 9:-1000 10:-31.7113 11:854.839 12:2.18699 13:4 
-0 -0 -0 -0 0 1 0 0 0 0:3.26484 1:2 2:1.5683 3:7.15276 4:132.071 5:0.25 6:1.5 7:-71.6084 8:-306.294 9:-1000 10:-136.503 11:928.392 12:0 13:4 
-0 -0 -0 -0 0 1 0 0 0 0:2.43373 1:2 2:1.57668 3:6.16069 4:136.077 5:-0.666667 6:-2 7:-24.4924 8:-409.604 9:-999.678 10:-150.177 11:975.508 12:1.28908 13:5 
-0 -0 -0 -0 0 0 0.00054462011570487125 0 0 0:2.10744 1:2 2:2.26086 3:9.48734 4:107.753 5:42 6:-2.6 7:-76.8466 8:-264.611 9:-991.544 10:-474.509 11:923.153 12:209.898 13:4 
-0 -0 -0 -0 0 0 0 0 0.00066084839040239955 0:2.12419 1:2 2:2.28455 3:9.46505 4:126.291 5:-0.111111 6:-2 7:-65.2617 8:-470.428 9:-989.123 10:-455.472 11:934.738 12:0.339905 13:4 
-0 -0 -0 -0 0 0 0 0 0.00046379456364898026 0:1.75814 1:2 2:2.55632 3:8.85988 4:117.058 5:0.428571 6:0.666667 7:-77.4708 8:-568.784 9:-955.568 10:-558.53 11:922.529 12:0 13:5 
-3.0726283904671339e-06 -0 -5.6102722889332327e-06 -0 0 0 0 1.1830034242784857e-06 0 0:2.35249 1:2 2:3.52156 3:11.7474 4:125.767 5:-0.0116279 6:-1.02941 7:-187.706 8:-424.808 9:-816.685 10:-340.834 11:812.294 12:0.274424 13:5 
-0 -0 -2.8273426414335725e-06 -0 0 0 0 0 0 0:1.44194 1:2 2:4.35441 3:11.1516 4:113.241 5:-0.375 6:-0.392857 7:-93.9597 8:-587.248 9:-723.714 10:-693.512 11:906.04 12:106.264 13:5 
-0 -0 -3.6549364598797946e-06 -0 0.00021443135558307252 0 0 1.2043855774613652e-06 0 0:2.12798 1:2 2:2.94385 3:8.8804 4:115.869 5:-0.785714 6:-0.416667 7:-87.5662 8:-340.916 9:-769.399 10:-469.928 11:912.434 12:129.012 13:3 
-0 -0 -0 -0 0 0 0 0 0.00089510982393076514 0:1.86961 1:2 2:1.80266 3:6.15418 4:134.49 5:-11 6:-9.5 7:-12.5439 8:-530.858 9:-999.247 10:-332.413 11:987.456 12:4.01405 13:5 
-0 -0 -0 -0 0.0013211443006248731 0 0 0 0 0:1.88107 1:2 2:1.72021 3:4.88716 4:132.057 5:7 6:-0.95 7:0 8:-189.225 9:-872.217 10:-531.612 11:1000 12:342.386 13:4 
-0 -0 -0 -0 0 0 0 0 0.0021517489102430842 0:2.2428 1:2 2:2.11231 3:9.47049 4:124.959 5:-1 6:-1.6 7:-22.7048 8:-415.926 9:-995.064 10:-445.87 11:977.295 12:29.9441 13:5 
-0 -0 -0 -4.3568041419875264e-07 -0.0019918043253402446 5.3123827500273783e-06 0 0 1.5931225492815786e-05 0:2.16599 1:2 2:2.51347 3:10.2649 4:129.859 5:0.666667 6:-0 7:-7.92752 8:-226.878 9:-850.887 10:-425.821 11:992.072 12:234.806 13:5 
-0 -0.00052119342361665823 -0 -0 -0.00016749372559946837 0 3.2391963026240745e-05 0 0 0:2.42356 1:2 2:2.21927 3:11.2948 4:127.013 5:0.8 6:0.388889 7:-12.2089 8:-7.23491 9:-897.807 10:-409.677 11:987.791 12:405.381 13:5 
-0 -0 -0 -2.4554351004349656e-05 -0 0.00012059348232578831 0 0 0 0:3.05644 1:2 2:2.52938 3:8.11211 4:130.547 5:-0.0416667 6:17 7:-30.1084 8:-189.482 9:-672.421 10:-141.71 11:969.892 12:137.696 13:4 
-0 -0 -1.2750726825453259e-09 -0 -0 0 0 0 0 0:3.64496 1:2 2:4.94413 3:12.6 4:136.017 5:0.44186 6:-4.6 7:-60.9671 8:-40.2943 9:-423.616 10:-139.804 11:939.033 12:234.057 13:3 
-0 -0 -0 -0 -0 1.8821464118041808e-05 4.4901885599546099e-05 0 0 0:3.43703 1:2 2:2.40639 3:12.7329 4:117.494 5:0.565217 6:-1 7:-27.8146 8:-67.1082 9:-799.558 10:-277.263 11:972.185 12:223.841 13:5 
-1.9487967525459343e-06 -0 -0 -0 -0 0 0 3.7838110468342128e-06 0 0:3.48357 1:2 2:4.10259 3:10.7163 4:139.964 5:1 6:-2 7:-6.28931 8:-126.235 9:-433.064 10:-101.078 11:993.711 12:160.827 13:3 
-0 -0 -0 -0 -0 0 2.6898996210353795e-05 0 0 0:2.71664 1:2 2:2.01967 3:8.37561 4:130.991 5:-1.14286 6:-0.428571 7:-19.4057 8:0 9:-836.871 10:-295.937 11:980.594 12:368.102 13:6 
-2.8499441351004523e-06 -0 -6.2407586221328114e-05 -0 -0 0 0 1.8303916007715016e-06 0 0:1.79822 1:2 2:5.30147 3:7.59335 4:131.676 5:1.42424 6:-1.18182 7:-87.7898 8:-191.654 9:-461.824 10:-293.354 11:912.21 12:364.451 13:1 
-0 -0 -0 -0 -0.10354055355645092 -0 0 0 0 0:2.1203 1:2 2:1.84819 3:5.07375 4:148.865 5:-1.41176 6:-0.666667 7:-207.702 8:-454.172 9:-1000 10:-184.339 11:792.298 12:17.4583 13:4 
-0 -0 -0 -0 -1 -0 0 0 0 0:2.74241 1:2 2:1.73973 3:6.05427 4:144.761 5:-1.80952 6:2 7:-146.299 8:-320.138 9:-999.508 10:-282.272 11:853.701 12:44.5045 13:3 
-0 -0 -0 -0 -1 -0 0 0 0 0:3.18265 1:2 2:1.53324 3:6.25339 4:146.791 5:-4.9 6:-1.25 7:-86.3223 8:-265.184 9:-1000 10:-233.62 11:913.678 12:49.0196 13:4 
-0 -0 -0 -0 -0.60997814904948666 -0 0 0 0 0:2.99256 1:2 2:1.42612 3:5.56807 4:141.38 5:-1.45455 6:0.75 7:-64.0707 8:-322.839 9:-1000 10:-125.656 11:935.929 12:11.3228 13:5 
-0 -0 -0 -0 -1 -0 0 0 0 0:3.11079 1:2 2:1.43883 3:5.80345 4:141.688 5:11 6:5 7:-61.0096 8:-311.242 9:-999.69 10:-169.712 11:938.99 12:10.2199 13:5 
-0 -0 -0 -0 -1 -0 0 0 0 0:3.19569 1:2 2:1.4542 3:6.0213 4:115.224 5:-1.55556 6:-1 7:-86.9996 8:-287.554 9:-999.802 10:-47.1661 11:913 12:25.3666 13:3 
-0 -0 -0 -0 -0.75916364176080131 -0 0 0 0 0:2.24098 1:2 2:1.55698 3:5.07945 4:133.359 5:-0.4375 6:0 7:-38.4053 8:-439.283 9:-987.198 10:-252.743 11:961.595 12:6.94952 13:2 
-0 -4.0430415674184862e-05 -0 -7.6969024364377325e-05 -0 -0 0 0 0 0:2.56116 1:2 2:4.16876 3:11.4386 4:130.76 5:-0.833333 6:-2 7:-352.898 8:-374.772 9:-2.91651 10:-8.02042 11:647.102 12:15.6763 13:2 
-0 -0 -0 -0 -0.5119401833385131 -0 0 0 0 0:2.1731 1:2 2:1.51661 3:4.87813 4:156.689 5:0 6:0.452381 7:-12.6839 8:-426.18 9:-1000 10:-460.173 11:987.316 12:33.9929 13:2 
-0 -0 -0 -0 -0.010076386849546893 -0 0 0 0 0:2.1203 1:2 2:1.84819 3:5.07375 4:148.865 5:-1.41176 6:-0.666667 7:-207.702 8:-454.172 9:-1000 10:-184.339 11:792.298 12:17.4583 13:4 
-0 -0 -0 -0 -1 -0 0 0 0 0:2.74241 1:2 2:1.73973 3:6.05427 4:144.761 5:-1.80952 6:2 7:-146.299 8:-320.138 9:-999.508 10:-282.272 11:853.701 12:44.5045 13:3 
-0 -0 -0 -0 -1 -0 0 0 0 0:3.18265 1:2 2:1.53324 3:6.25339 4:146.791 5:-4.9 6:-1.25 7:-86.3223 8:-265.184 9:-1000 10:-233.62 11:913.678 12:49.0196 13:4 
-0 -0 -0 -0 -0.59601975354774794 -0 0 0 0 0:2.99256 1:2 2:1.42612 3:5.56807 4:141.38 5:-1.45455 6:0.75 7:-64.0707 8:-322.839 9:-1000 10:-125.656 11:935.929 12:11.3228 13:5 
-0 -0 -0 -0 -1 -0 0 0 0 0:3.11079 1:2 2:1.43883 3:5.80345 4:141.688 5:11 6:5 7:-61.0096 8:-311.242 9:-999.69 10:-169.712 11:938.99 12:10.2199 13:5 
-0 -0 -0 -0 -1 -0 0.0014181614215490294 0 0 0:3.19569 1:2 2:1.4542 3:6.0213 4:115.224 5:-1.55556 6:-1 7:-86.9996 8:-287.554 9:-999.802 10:-47.1661 11:913 12:25.3666 13:3 
-0 -0 -0 -0 -0.9984497771021974 -0 0 0 2.5976854963265283e-06 0:2.24098 1:2 2:1.55698 3:5.07945 4:133.359 5:-0.4375 6:0 7:-38.4053 8:-439.283 9:-987.198 10:-252.743 11:961.595 12:6.94952 13:2 
-5.8298732263446355e-05 -0.00024781241463321787 -0.00011749446313307303 -0.00094111587438195786 -0 -3.6112596200117232e-05 0 1.2926418771589945e-05 2.1270014997049806e-06 0:2.56116 1:2 2:4.16876 3:11.4386 4:130.76 5:-0.833333 6:-2 7:-352.898 8:-374.772 9:-2.91651 10:-8.02042 11:647.102 12:15.6763 13:2 
-0 -0 -3.7724322509295366e-05 -0 -0.67574986958947403 -0 0 0 0.0011834355898073076 0:2.1731 1:2 2:1.51661 3:4.87813 4:156.689 5:0 6:0.452381 7:-12.6839 8:-426.18 9:-1000 10:-460.173 11:987.316 12:33.9929 13:2 
-0 -0 -0 -0 -0 -0 0 0 2.1247865247560799e-05 0:2.37593 1:2 2:1.62835 3:5.40471 4:160.864 5:-0.09375 6:0.266667 7:-73.8061 8:-420.164 9:-1000 10:-411.481 11:926.194 12:0.723589 13:2 
-0 -0 -0 -0 -1 -0 0 0 0 0:4.55794 1:2 2:1.292 3:7.41355 4:129.934 5:-4.5 6:0.2 7:-19.1463 8:-215.945 9:-1000 10:-104.991 11:980.854 12:3.45261 13:4 
-0 -0 -0 -0 -1 -0 0 0 0 0:2.99622 1:2 2:1.6081 3:7.04038 4:141.886 5:-1 6:-3.22222 7:-55.0305 8:-332.283 9:-993.069 10:-162.781 11:944.97 12:1.47028 13:5 
-0 -0 -0 -0 -1 -0 0 0 0 0:2.69026 1:2 2:1.6644 3:6.67129 4:141.441 5:-0.461538 6:4.6 7:-68.0904 8:-368.307 9:-1000 10:-204.89 11:931.91 12:3.40452 13:4 
-0 -0 -0 -0 -1 -0 0 0 0 0:3.15348 1:2 2:1.5815 3:6.79077 4:140.023 5:-0.428571 6:4.6 7:-89.8144 8:-313.848 9:-1000 10:-133.467 11:910.186 12:3.26141 13:4 
-0 -0 -0 -0 -1 -0 0 0 0 0:3.23838 1:2 2:1.50521 3:6.35848 4:136.336 5:-0.135593 6:0.956522 7:-92.015 8:-307.548 9:-1000 10:-102.152 11:907.985 12:1.24766 13:4 
-0 -0 -0 -0.00015841251381885246 -1 -0 0 0 0 0:2.15043 1:2 2:1.61818 3:5.97871 4:138.298 5:-2.75 6:0.0454545 7:-73.2595 8:-461.882 9:-1000 10:-11.4106 11:926.741 12:3.14205 13:6 
-0 -0 -0 -0 -1 -0 0 0 0 0:2.54393 1:2 2:1.6647 3:6.27637 4:133.627 5:0.230769 6:0.212766 7:-131.693 8:-393.092 9:-1000 10:-23.8539 11:868.307 12:0 13:4 
-0 -0.0051984334067435673 -0 -0 -0 -0 0 0 0 0:4.24928 1:2 2:1.31306 3:6.64499 4:155.545 5:-0.214286 6:6 7:-69.4538 8:-232.131 9:-999.831 10:-28.6581 11:930.546 12:3.20297 13:3 
-0 -0 -0 -0 -1 -0 0 0 0 0:4.01116 1:2 2:1.48192 3:8.39114 4:138.899 5:0.538462 6:0.833333 7:-24.3152 8:-224.403 9:-1000 10:-249.304 11:975.685 12:24.9011 13:4 
-0 -0 -0 -0 -1 -0 0 0 0 0:3.06054 1:2 2:1.63866 3:7.16504 4:130.489 5:-0.0555556 6:0.25 7:-90.1099 8:-326.374 9:-1000 10:-116.728 11:909.89 12:0.3663 13:4 
-0 -0 -0 -0 -1 -0 0 0 0 0:3.32353 1:2 2:1.6631 3:8.24745 4:129.916 5:0.461538 6:0.301887 7:-53.8613 8:-300.885 9:-1000 10:-256.064 11:946.139 12:0 13:6 
-0 -0 -0 -0 -1 -0 0 0 0 0:3.4925 1:2 2:1.71566 3:9.38723 4:128.087 5:0.0847458 6:0.288136 7:-44.7207 8:-267.235 9:-1000 10:-243.145 11:955.279 12:19.0928 13:4 
-0 -0 -0 -0 -0.26853684625301349 -0 0 0 0 0:2.86316 1:2 2:1.58868 3:6.06585 4:142.232 5:-16 6:-0.6 7:-16.8067 8:-294.643 9:-931.723 10:-342.962 11:983.193 12:54.6218 13:3 
-0 -0 -0 -0 -0.16569382876786401 -0 0 0 0 0:2.1203 1:2 2:1.84819 3:5.07375 4:148.865 5:-1.41176 6:-0.666667 7:-207.702 8:-454.172 9:-1000 10:-184.339 11:792.298 12:17.4583 13:4 
-0 -0 -0 -0 -0.79266017367237018 -0 0 0 0 0:2.74241 1:2 2:1.73973 3:6.05427 4:144.761 5:-1.80952 6:2 7:-146.299 8:-320.138 9:-999.508 10:-282.272 11:853.701 12:44.5045 13:3 
-0 -0 -0 -0 -1 -0 0 0 0 0:3.18265 1:2 2:1.53324 3:6.25339 4:146.791 5:-4.9 6:-1.25 7:-86.3223 8:-265.184 9:-1000 10:-233.62 11:913.678 12:49.0196 13:4 
-0 -0 -0 -0 -0.72678300549429109 -0 0 0 0 0:2.99256 1:2 2:1.42612 3:5.56807 4:141.38 5:-1.45455 6:0.75 7:-64.0707 8:-322.839 9:-1000 10:-125.656 11:935.929 12:11.3228 13:5 
-0 -0 -0 -0 -1 -0 0 0 0 0:3.11079 1:2 2:1.43883 3:5.80345 4:141.688 5:11 6:5 7:-61.0096 8:-311.242 9:-999.69 10:-169.712 11:938.99 12:10.2199 13:5 
-0 -0 -0 -0 -1 -0 0.00061478576213824907 0 0 0:3.19569 1:2 2:1.4542 3:6.0213 4:115.224 5:-1.55556 6:-1 7:-86.9996 8:-287.554 9:-999.802 10:-47.1661 11:913 12:25.3666 13:3 
-0 -0 -0 -0 -0.0071972294308912796 -0 0 0 0 0:2.1203 1:2 2:1.84819 3:5.07375 4:148.865 5:-1.41176 6:-0.666667 7:-207.702 8:-454.172 9:-1000 10:-184.339 11:792.298 12:17.4583 13:4 
-0 -0 -0 -0 -0.099129092411521846 -0 0 0 0 0:2.74241 1:2 2:1.73973 3:6.05427 4:144.761 5:-1.80952 6:2 7:-146.299 8:-320.138 9:-999.508 10:-282.272 11:853.701 12:44.5045 13:3 
-0 -0 -0 -0 -1 -0 0 0 0 0:3.18265 1:2 2:1.53324 3:6.25339 4:146.791 5:-4.9 6:-1.25 7:-86.3223 8:-265.184 9:-1000 10:-233.62 11:913.678 12:49.0196 13:4 
-0 -0 -0 -0 -0.6944724910267307 -0 0 0 0 0:2.99256 1:2 2:1.42612 3:5.56807 4:141.38 5:-1.45455 6:0.75 7:-64.0707 8:-322.839 9:-1000 10:-125.656 11:935.929 12:11.3228 13:5 
-0 -0 -0 -0 -1 -0 0 0 0 0:3.11079 1:2 2:1.43883 3:5.80345 4:141.688 5:11 6:5 7:-61.0096 8:-311.242 9:-999.69 10:-169.712 11:938.99 12:10.2199 13:5 
-0 -0 -0 -0 -1 -0 0.010754271136521013 0 0 0:3.19569 1:2 2:1.4542 3:6.0213 4:115.224 5:-1.55556 6:-1 7:-86.9996 8:-287.554 9:-999.802 10:-47.1661 11:913 12:25.3666 13:3 
-0 -0 -0 -0 -0 -0 0 0 0.00043488918897977816 0:2.17457 1:2 2:1.74877 3:5.33265 4:162.004 5:0.375 6:-1 7:-104.336 8:-459.021 9:-999.72 10:-446.434 11:895.664 12:0.839161 13:2 
-0 -0 -0 -0 -0 -0 0 0 0.0003766762649643257 0:1.99646 1:2 2:1.44743 3:4.44549 4:144.777 5:14 6:0 7:0 8:-494.676 9:-1000 10:-244.011 11:1000 12:6.21118 13:3 
-1.1080080810268994e-06 -0 -0 -0 -0 -0 0.032370038605937783 0 0 0:1.4641 1:2 2:1.67882 3:4.12013 4:155.919 5:-3.58333 6:-0.272727 7:-218.125 8:-622.205 9:-1000 10:0 11:781.875 12:60.8082 13:2 
-0 -0 -0 -0 -1 -0 0 0 0 0:1.62752 1:2 2:1.67181 3:4.47091 4:146.239 5:-2.16667 6:0.433333 7:-72.5291 8:-602.781 9:-1000 10:-252.537 11:927.471 12:11.6498 13:4 
-0 -0.046213623884031003 -0 -0 -1 -0.00010861473299374021 0.072975635360267271 0 0 0:4.4026 1:2 2:1.31493 3:7.58373 4:130.531 5:2 6:0.714286 7:0 8:-114.623 9:-992.415 10:-221.239 11:1000 12:112.516 13:3 
-0 -0 -0 -0 -1 -0 0 0 0 0:1.90149 1:2 2:1.65707 3:4.86102 4:131.274 5:-2.33333 6:-0.5 7:-60.241 8:-494.277 9:-996.687 10:-261.747 11:939.759 12:31.6265 13:4 
-0 -0 -0 -0 -0.67742905221963445 -0 0 0 0 0:1.7558 1:2 2:1.59625 3:4.54982 4:145.632 5:4.75 6:1 7:-74.7972 8:-536.197 9:-999.7 10:-134.275 11:925.203 12:33.3433 13:4 
-0 -0 -0 -0 -0.92265478553425928 -0 0 0 0 0:1.54897 1:2 2:1.6022 3:4.36873 4:145.427 5:-12.6667 6:-3 7:-113.699 8:-620.91 9:-1000 10:-61.2867 11:886.301 12:24.6811 13:4 
-0 -0 -0 -0.0094031524232280964 -0 -0 0 0 0 0:1.8109 1:2 2:1.44567 3:4.41652 4:149.128 5:5.6 6:-1 7:-54.8673 8:-528.192 9:-998.736 10:-2.78129 11:945.133 12:24.0202 13:3 
-0 -0 -0 -0 -0 -0 0 1.8413671980675196e-06 0 0:2.04615 1:2 2:1.40562 3:4.63618 4:150.819 5:5.75 6:-0.333333 7:0 8:-464.188 9:-1000 10:-81.0409 11:1000 12:24.5353 13:5 
-0 -0 -0 -0 -0.032066071087435533 -0 -0 0 0 0:2.50515 1:2 2:2.08598 3:9.30253 4:129.68 5:-0.0136986 6:0.666667 7:-78.1893 8:-266.975 9:-999.228 10:-195.73 11:921.811 12:132.202 13:5 
-0 -0 -0 -0 -0.014584042699977543 -0 -0 0 0 0:3.52495 1:2 2:1.83976 3:10.0717 4:119.876 5:0.333333 6:-0 7:-81.6771 8:-158.998 9:-1000 10:-188.13 11:918.323 12:124.694 13:3 
-0 -0 -0 -0 -0.00405180716910283 -0 -0 0 0 0:2.50515 1:2 2:2.08598 3:9.30253 4:129.68 5:-0.0136986 6:0.666667 7:-78.1893 8:-266.975 9:-999.228 10:-195.73 11:921.811 12:132.202 13:5 
-0 -0 -0 -0 -0.021778559090687485 -0 -0 0 0 0:3.52495 1:2 2:1.83976 3:10.0717 4:119.876 5:0.333333 6:-0 7:-81.6771 8:-158.998 9:-1000 10:-188.13 11:918.323 12:124.694 13:3 
-0 -0 -0 -0.00024627438444279584 -0.01137145731450011 -0 -0.044232308544992195 3.3764578370927152e-07 0 0:2.18994 1:2 2:1.88968 3:8.28708 4:142.682 5:-0.6 6:0.0588235 7:-22.6537 8:-380.906 9:-1000 10:-57.6052 11:977.346 12:75.7282 13:3 
-0 -0 -0 -6.7007995735349972e-05 -0 -0 -0 0 0 0:2.63056 1:2 2:1.65932 3:7.80502 4:140.382 5:0.1 6:-0.142857 7:-6.189 8:-299.929 9:-1000 10:0 11:993.811 12:80.219 13:3 
-0 -0.020874340923608153 -0 -0 -0 -0 -0 0 0 0:3.38475 1:2 2:1.85954 3:11.5711 4:141.942 5:-3 6:-0 7:-7.34177 8:-189.62 9:-1000 10:-132.405 11:992.658 12:105.823 13:2 
-0 -0 -0 -0 -0 -2.5178670683253873e-05 -0 0 0 0:2.81036 1:2 2:2.44268 3:11.2046 4:112.849 5:0.833333 6:-0.0666667 7:-154.963 8:-42.3696 9:-925.853 10:-314.241 11:845.037 12:313.456 13:5 
-0 -0 -0 -0 -0 -0 -0.001214785112549479 0 0 0:3.25383 1:2 2:3.23689 3:13.7703 4:114.564 5:1.55882 6:-0.181818 7:-331.204 8:-177.539 9:-959.987 10:-270.007 11:668.796 12:129.792 13:5 
-0 -0.00077306836040864164 -5.7356232031071151e-06 -0 -0 -0 -0.0040590284471807491 9.6855479185534037e-07 0 0:2.86157 1:2 2:2.92012 3:12.7175 4:112.488 5:0.947368 6:0.142857 7:-200.645 8:-107.349 9:-892.651 10:-313.062 11:799.355 12:242.11 13:2 
-1.345311469355223e-06 -0 -1.2389159799168994e-06 -0 -0 -0 -0 0 0 0:3.01099 1:2 2:3.83589 3:18.2757 4:100.721 5:5 6:0.5 7:-393.704 8:-308.394 9:-987.226 10:-62.9562 11:606.296 12:23.7226 13:8 
-0 -0 -0 -0 -0 -0 -0 0 1.7284464114169362e-06 0:3.90167 1:2 2:3.49562 3:20.2655 4:101.905 5:1.375 6:0.05 7:-316.104 8:-222.768 9:-967.962 10:-210.594 11:683.896 12:33.5327 13:4 
-0 -0 -0 -0 -0 -0 -0.043153440306555435 0 0 0:3.47178 1:2 2:2.15431 3:12.3805 4:128.181 5:0.8125 6:0.153846 7:-123.466 8:-206.902 9:-1000 10:-199.54 11:876.534 12:81.135 13:4 
-1.8855410992078137e-06 -0 -0 -0 -0 -0 -0 0 0 0:2.8202 1:2 2:4.531 3:21.0323 4:107.438 5:0.4 6:0.5 7:-434.814 8:-224.212 9:-994.269 10:0 11:565.186 12:130.372 13:7 
-0 -0 -0 -0 -0.065874911974262165 -0 -0 0 0 0:2.50515 1:2 2:2.08598 3:9.30253 4:129.68 5:-0.0136986 6:0.666667 7:-78.1893 8:-266.975 9:-999.228 10:-195.73 11:921.811 12:132.202 13:5 
-0 -0 -0 -0 -0.011862862577248093 -0 -0 0 0 0:2.50515 1:2 2:2.08598 3:9.30253 4:129.68 5:-0.0136986 6:0.666667 7:-78.1893 8:-266.975 9:-999.228 10:-195.73 11:921.811 12:132.202 13:5 
-0 -0 -0 -2.3521818684918415e-05 -0 -0 -0 7.14928968517022e-07 0 0:2.15766 1:2 2:2.29269 3:9.26487 4:135.552 5:-0.393939 6:0 7:-147.454 8:-315.484 9:-994.724 10:-0.791348 11:852.546 12:147.982 13:5 
-0 -0 -0 -0 -0 -0 -0 0 2.0242379106973933e-05 0:2.11602 1:2 2:2.08284 3:8.87636 4:131.879 5:-1.09524 6:0 7:-18.9295 8:-303.851 9:-998.042 10:-212.794 11:981.07 12:168.734 13:2 
-0 -0 -0 -0 -0.038638487246066139 -0 -0 0 0 0:3.52495 1:2 2:1.83976 3:10.0717 4:119.876 5:0.333333 6:-0 7:-81.6771 8:-158.998 9:-1000 10:-188.13 11:918.323 12:124.694 13:3 
-0 -0 -0 -0 -0.0014480764252334868 -0 -0.025473329875134912 0 0 0:3.05978 1:2 2:1.83604 3:9.86481 4:138.483 5:-1.125 6:0.666667 7:-24.5604 8:-226.068 9:-1000 10:-156.015 11:975.44 12:100.754 13:2 
-0 -0 -0 -0 -0 -7.9014174152886786e-05 -0 0 0 0:2.71142 1:2 2:2.09737 3:11.0879 4:124.812 5:-3.5 6:0.2 7:-19.4254 8:-59.6443 9:-964.432 10:-250.889 11:980.575 12:309.166 13:3 
-0.000261438498088562 -1.9219419942238219e-06 -0.017536814847477624 -5.202787960389724e-06 -2.3908570831263461e-06 -5.6142026476057145e-06 -1.4767785969657463e-05 -2.0211295440816341e-06 1.591038268924428e-06 0:1.37237 1:2 2:5.73147 3:11.2131 4:120.605 5:1.2381 6:-7 7:-142.031 8:-478.16 9:-0.289268 10:0 11:857.969 12:250.506 13:3 
-1.7723254632892216e-06 -1.656383760861896e-05 -5.0911035701155957e-06 -1.1575185246580237e-05 -0.0068983803634878977 -1.5931225492815786e-05 -0.0020209735959950035 -2.197082551839087e-05 -1.591038268924428e-06 0:2.23549 1:2 2:2.08104 3:9.07202 4:135.362 5:0.714286 6:-6.5 7:-27.8405 8:-447.329 9:-995.485 10:-420.241 11:972.16 12:0 13:5 
